{"learner":{"attributes":{"scikit_learn":"{\"_estimator_type\": \"regressor\"}"},"feature_names":["MagpieData minimum Number","MagpieData maximum Number","MagpieData range Number","MagpieData mean Number","MagpieData avg_dev Number","MagpieData mode Number","MagpieData minimum MendeleevNumber","MagpieData maximum MendeleevNumber","MagpieData range MendeleevNumber","MagpieData mean MendeleevNumber","MagpieData avg_dev MendeleevNumber","MagpieData mode MendeleevNumber","MagpieData minimum AtomicWeight","MagpieData maximum AtomicWeight","MagpieData range AtomicWeight","MagpieData mean AtomicWeight","MagpieData avg_dev AtomicWeight","MagpieData mode AtomicWeight","MagpieData minimum MeltingT","MagpieData maximum MeltingT","MagpieData range MeltingT","MagpieData mean MeltingT","MagpieData avg_dev MeltingT","MagpieData mode MeltingT","MagpieData minimum Column","MagpieData maximum Column","MagpieData range Column","MagpieData mean Column","MagpieData avg_dev Column","MagpieData mode Column","MagpieData minimum Row","MagpieData maximum Row","MagpieData range Row","MagpieData mean Row","MagpieData avg_dev Row","MagpieData mode Row","MagpieData minimum CovalentRadius","MagpieData maximum CovalentRadius","MagpieData range CovalentRadius","MagpieData mean CovalentRadius","MagpieData avg_dev CovalentRadius","MagpieData mode CovalentRadius","MagpieData minimum Electronegativity","MagpieData maximum Electronegativity","MagpieData range Electronegativity","MagpieData mean Electronegativity","MagpieData avg_dev Electronegativity","MagpieData mode Electronegativity","MagpieData minimum NsValence","MagpieData maximum NsValence","MagpieData range NsValence","MagpieData mean NsValence","MagpieData avg_dev NsValence","MagpieData mode NsValence","MagpieData minimum NpValence","MagpieData maximum NpValence","MagpieData range NpValence","MagpieData mean NpValence","MagpieData avg_dev NpValence","MagpieData mode NpValence","MagpieData minimum NdValence","MagpieData maximum NdValence","MagpieData range NdValence","MagpieData mean NdValence","MagpieData avg_dev NdValence","MagpieData mode NdValence","MagpieData minimum NfValence","MagpieData maximum NfValence","MagpieData range NfValence","MagpieData mean NfValence","MagpieData avg_dev NfValence","MagpieData mode NfValence","MagpieData minimum NValence","MagpieData maximum NValence","MagpieData range NValence","MagpieData mean NValence","MagpieData avg_dev NValence","MagpieData mode NValence","MagpieData minimum NsUnfilled","MagpieData maximum NsUnfilled","MagpieData range NsUnfilled","MagpieData mean NsUnfilled","MagpieData avg_dev NsUnfilled","MagpieData mode NsUnfilled","MagpieData minimum NpUnfilled","MagpieData maximum NpUnfilled","MagpieData range NpUnfilled","MagpieData mean NpUnfilled","MagpieData avg_dev NpUnfilled","MagpieData mode NpUnfilled","MagpieData minimum NdUnfilled","MagpieData maximum NdUnfilled","MagpieData range NdUnfilled","MagpieData mean NdUnfilled","MagpieData avg_dev NdUnfilled","MagpieData mode NdUnfilled","MagpieData minimum NfUnfilled","MagpieData maximum NfUnfilled","MagpieData range NfUnfilled","MagpieData mean NfUnfilled","MagpieData avg_dev NfUnfilled","MagpieData mode NfUnfilled","MagpieData minimum NUnfilled","MagpieData maximum NUnfilled","MagpieData range NUnfilled","MagpieData mean NUnfilled","MagpieData avg_dev NUnfilled","MagpieData mode NUnfilled","MagpieData minimum GSvolume_pa","MagpieData maximum GSvolume_pa","MagpieData range GSvolume_pa","MagpieData mean GSvolume_pa","MagpieData avg_dev GSvolume_pa","MagpieData mode GSvolume_pa","MagpieData minimum GSbandgap","MagpieData maximum GSbandgap","MagpieData range GSbandgap","MagpieData mean GSbandgap","MagpieData avg_dev GSbandgap","MagpieData mode GSbandgap","MagpieData minimum GSmagmom","MagpieData maximum GSmagmom","MagpieData range GSmagmom","MagpieData mean GSmagmom","MagpieData avg_dev GSmagmom","MagpieData mode GSmagmom","MagpieData minimum SpaceGroupNumber","MagpieData maximum SpaceGroupNumber","MagpieData range SpaceGroupNumber","MagpieData mean SpaceGroupNumber","MagpieData avg_dev SpaceGroupNumber","MagpieData mode SpaceGroupNumber","0-norm","2-norm","3-norm","5-norm","7-norm","10-norm","lattice_a","lattice_b","lattice_c","alpha","beta","gamma","space_group_number","band_gap_x","formation_energy_per_atom_x","mean Voro_index_10","std_dev Voro_dist_mean","mean Voro_dist_maximum","std_dev Voro_dist_maximum","density_x","vpa","E_1D","E_2D","E_3D","em_mean"],"feature_types":["float","float","float","float","float","float","float","float","float","float","float","float","float","float","float","float","float","float","float","float","float","float","float","float","float","float","float","float","float","float","float","float","float","float","float","float","float","float","float","float","float","float","float","float","float","float","float","float","float","float","float","float","float","float","float","float","float","float","float","float","float","float","float","float","float","float","float","float","float","float","float","float","float","float","float","float","float","float","float","float","float","float","float","float","float","float","float","float","float","float","float","float","float","float","float","float","float","float","float","float","float","float","float","float","float","float","float","float","float","float","float","float","float","float","float","float","float","float","float","float","float","float","float","float","float","float","float","float","float","float","float","float","float","float","float","float","float","float","float","float","float","float","float","float","float","float","float","float","float","float","float","float","float","float","float","float","float"],"gradient_booster":{"model":{"gbtree_model_param":{"num_parallel_tree":"1","num_trees":"742"},"iteration_indptr":[0,1,2,3,4,5,6,7,8,9,10,11,12,13,14,15,16,17,18,19,20,21,22,23,24,25,26,27,28,29,30,31,32,33,34,35,36,37,38,39,40,41,42,43,44,45,46,47,48,49,50,51,52,53,54,55,56,57,58,59,60,61,62,63,64,65,66,67,68,69,70,71,72,73,74,75,76,77,78,79,80,81,82,83,84,85,86,87,88,89,90,91,92,93,94,95,96,97,98,99,100,101,102,103,104,105,106,107,108,109,110,111,112,113,114,115,116,117,118,119,120,121,122,123,124,125,126,127,128,129,130,131,132,133,134,135,136,137,138,139,140,141,142,143,144,145,146,147,148,149,150,151,152,153,154,155,156,157,158,159,160,161,162,163,164,165,166,167,168,169,170,171,172,173,174,175,176,177,178,179,180,181,182,183,184,185,186,187,188,189,190,191,192,193,194,195,196,197,198,199,200,201,202,203,204,205,206,207,208,209,210,211,212,213,214,215,216,217,218,219,220,221,222,223,224,225,226,227,228,229,230,231,232,233,234,235,236,237,238,239,240,241,242,243,244,245,246,247,248,249,250,251,252,253,254,255,256,257,258,259,260,261,262,263,264,265,266,267,268,269,270,271,272,273,274,275,276,277,278,279,280,281,282,283,284,285,286,287,288,289,290,291,292,293,294,295,296,297,298,299,300,301,302,303,304,305,306,307,308,309,310,311,312,313,314,315,316,317,318,319,320,321,322,323,324,325,326,327,328,329,330,331,332,333,334,335,336,337,338,339,340,341,342,343,344,345,346,347,348,349,350,351,352,353,354,355,356,357,358,359,360,361,362,363,364,365,366,367,368,369,370,371,372,373,374,375,376,377,378,379,380,381,382,383,384,385,386,387,388,389,390,391,392,393,394,395,396,397,398,399,400,401,402,403,404,405,406,407,408,409,410,411,412,413,414,415,416,417,418,419,420,421,422,423,424,425,426,427,428,429,430,431,432,433,434,435,436,437,438,439,440,441,442,443,444,445,446,447,448,449,450,451,452,453,454,455,456,457,458,459,460,461,462,463,464,465,466,467,468,469,470,471,472,473,474,475,476,477,478,479,480,481,482,483,484,485,486,487,488,489,490,491,492,493,494,495,496,497,498,499,500,501,502,503,504,505,506,507,508,509,510,511,512,513,514,515,516,517,518,519,520,521,522,523,524,525,526,527,528,529,530,531,532,533,534,535,536,537,538,539,540,541,542,543,544,545,546,547,548,549,550,551,552,553,554,555,556,557,558,559,560,561,562,563,564,565,566,567,568,569,570,571,572,573,574,575,576,577,578,579,580,581,582,583,584,585,586,587,588,589,590,591,592,593,594,595,596,597,598,599,600,601,602,603,604,605,606,607,608,609,610,611,612,613,614,615,616,617,618,619,620,621,622,623,624,625,626,627,628,629,630,631,632,633,634,635,636,637,638,639,640,641,642,643,644,645,646,647,648,649,650,651,652,653,654,655,656,657,658,659,660,661,662,663,664,665,666,667,668,669,670,671,672,673,674,675,676,677,678,679,680,681,682,683,684,685,686,687,688,689,690,691,692,693,694,695,696,697,698,699,700,701,702,703,704,705,706,707,708,709,710,711,712,713,714,715,716,717,718,719,720,721,722,723,724,725,726,727,728,729,730,731,732,733,734,735,736,737,738,739,740,741,742],"tree_info":[0,0,0,0,0,0,0,0,0,0,0,0,0,0,0,0,0,0,0,0,0,0,0,0,0,0,0,0,0,0,0,0,0,0,0,0,0,0,0,0,0,0,0,0,0,0,0,0,0,0,0,0,0,0,0,0,0,0,0,0,0,0,0,0,0,0,0,0,0,0,0,0,0,0,0,0,0,0,0,0,0,0,0,0,0,0,0,0,0,0,0,0,0,0,0,0,0,0,0,0,0,0,0,0,0,0,0,0,0,0,0,0,0,0,0,0,0,0,0,0,0,0,0,0,0,0,0,0,0,0,0,0,0,0,0,0,0,0,0,0,0,0,0,0,0,0,0,0,0,0,0,0,0,0,0,0,0,0,0,0,0,0,0,0,0,0,0,0,0,0,0,0,0,0,0,0,0,0,0,0,0,0,0,0,0,0,0,0,0,0,0,0,0,0,0,0,0,0,0,0,0,0,0,0,0,0,0,0,0,0,0,0,0,0,0,0,0,0,0,0,0,0,0,0,0,0,0,0,0,0,0,0,0,0,0,0,0,0,0,0,0,0,0,0,0,0,0,0,0,0,0,0,0,0,0,0,0,0,0,0,0,0,0,0,0,0,0,0,0,0,0,0,0,0,0,0,0,0,0,0,0,0,0,0,0,0,0,0,0,0,0,0,0,0,0,0,0,0,0,0,0,0,0,0,0,0,0,0,0,0,0,0,0,0,0,0,0,0,0,0,0,0,0,0,0,0,0,0,0,0,0,0,0,0,0,0,0,0,0,0,0,0,0,0,0,0,0,0,0,0,0,0,0,0,0,0,0,0,0,0,0,0,0,0,0,0,0,0,0,0,0,0,0,0,0,0,0,0,0,0,0,0,0,0,0,0,0,0,0,0,0,0,0,0,0,0,0,0,0,0,0,0,0,0,0,0,0,0,0,0,0,0,0,0,0,0,0,0,0,0,0,0,0,0,0,0,0,0,0,0,0,0,0,0,0,0,0,0,0,0,0,0,0,0,0,0,0,0,0,0,0,0,0,0,0,0,0,0,0,0,0,0,0,0,0,0,0,0,0,0,0,0,0,0,0,0,0,0,0,0,0,0,0,0,0,0,0,0,0,0,0,0,0,0,0,0,0,0,0,0,0,0,0,0,0,0,0,0,0,0,0,0,0,0,0,0,0,0,0,0,0,0,0,0,0,0,0,0,0,0,0,0,0,0,0,0,0,0,0,0,0,0,0,0,0,0,0,0,0,0,0,0,0,0,0,0,0,0,0,0,0,0,0,0,0,0,0,0,0,0,0,0,0,0,0,0,0,0,0,0,0,0,0,0,0,0,0,0,0,0,0,0,0,0,0,0,0,0,0,0,0,0,0,0,0,0,0,0,0,0,0,0,0,0,0,0,0,0,0,0,0,0,0,0,0,0,0,0,0,0,0,0,0,0,0,0,0,0,0,0,0,0,0,0,0,0,0,0,0,0,0,0,0,0,0,0,0,0,0,0,0,0,0,0,0,0,0,0,0,0,0,0,0,0,0,0,0,0,0,0,0,0,0,0,0,0,0,0,0,0,0,0,0,0,0,0,0,0,0,0,0,0,0,0,0,0,0,0,0,0,0,0,0,0,0,0,0,0,0,0,0,0,0,0,0,0,0,0,0,0,0,0,0,0,0,0,0,0,0,0,0,0],"trees":[{"base_weights":[1.3279064E-1,-3.5001605E0,4.607216E-1,-1.9699758E-2,-1.583232E-1,-1.2107284E0,7.216595E-1,-1.0030461E-1,-2.5728047E-1,-9.374716E-1,9.7846234E-1,-6.149415E-2,6.5090746E-1,2.4666155E-2,-2.349963E0,1.3693259E0,-3.746965E-2,4.4636745E-3,3.2721557E-2,-3.2274798E-2,-1.06955305E-1,-8.0741525E-1,1.6209452E0,-1.0998224E0,5.1567024E-1,5.8694566E-3,-5.4895096E-2,4.2771723E-2,7.2268076E-2,-5.7542603E-2,-0E0,2.734681E-2,-1.4098722E-2],"categories":[],"categories_nodes":[],"categories_segments":[],"categories_sizes":[],"default_left":[0,0,0,0,0,0,0,0,0,0,0,0,0,0,0,0,0,0,0,0,0,0,0,0,0,0,0,0,0,0,0,0,0],"id":0,"left_children":[1,3,5,-1,-1,7,9,-1,11,13,15,-1,17,-1,19,21,23,-1,-1,-1,-1,25,27,29,31,-1,-1,-1,-1,-1,-1,-1,-1],"loss_changes":[2.8563428E2,9.364348E1,9.704374E1,0E0,0E0,5.734445E1,8.293954E1,0E0,3.802768E1,6.7214005E1,6.7814224E1,0E0,2.1153655E0,0E0,1.6051712E1,6.848428E1,2.8472929E1,0E0,0E0,0E0,0E0,1.4975687E1,1.0389923E1,1.6156225E1,1.293185E1,0E0,0E0,0E0,0E0,0E0,0E0,0E0,0E0],"parents":[2147483647,0,0,1,1,2,2,5,5,6,6,8,8,9,9,10,10,12,12,14,14,15,15,16,16,21,21,22,22,23,23,24,24],"right_children":[2,4,6,-1,-1,8,10,-1,12,14,16,-1,18,-1,20,22,24,-1,-1,-1,-1,26,28,30,32,-1,-1,-1,-1,-1,-1,-1,-1],"split_conditions":[-1.018961E0,-1.1197203E0,-8.519724E-2,-1.9699758E-2,-1.583232E-1,-2.0860009E-2,5.425031E-1,-1.0030461E-1,-5.660239E-1,-6.355901E-2,-5.645694E-1,-6.149415E-2,-6.2586075E-1,2.4666155E-2,7.0181173E-1,-6.349888E-1,-3.61179E-1,4.4636745E-3,3.2721557E-2,-3.2274798E-2,-1.06955305E-1,-6.6612244E-1,7.021323E-1,-2.5797716E-1,4.6280783E-1,5.8694566E-3,-5.4895096E-2,4.2771723E-2,7.2268076E-2,-5.7542603E-2,-0E0,2.734681E-2,-1.4098722E-2],"split_indices":[16,3,102,0,0,88,132,0,74,147,75,0,133,0,128,152,117,0,0,0,0,152,149,112,51,0,0,0,0,0,0,0,0],"split_type":[0,0,0,0,0,0,0,0,0,0,0,0,0,0,0,0,0,0,0,0,0,0,0,0,0,0,0,0,0,0,0,0,0],"sum_hessian":[2.4E2,1.9E1,2.21E2,8E0,1.1E1,2.9E1,1.92E2,8E0,2.1E1,2.5E1,1.67E2,7E0,1.4E1,1.1E1,1.4E1,1.21E2,4.6E1,8E0,6E0,8E0,6E0,1.2E1,1.09E2,1.6E1,3E1,6E0,6E0,9.1E1,1.8E1,9E0,7E0,2.2E1,8E0],"tree_param":{"num_deleted":"0","num_feature":"157","num_nodes":"33","size_leaf_vector":"1"}},{"base_weights":[-2.809439E-2,-1.7476436E-1,2.199685E-1,-1.1844653E0,8.525915E-1,-2.1037116E0,1.2148257E0,1.0497885E0,-8.4701635E-2,-5.287785E-1,-3.2163491E0,4.8611213E-2,-0E0,1.5634365E0,-5.7229176E-2,3.489357E-2,-4.4154633E-2,-3.7247012E0,-2.1071978E-2,1.7424483E0,-0E0,4.4987863E-1,-1.038221E0,-1.6631057E-2,2.4112923E-2,-1.2961474E-1,-6.582127E-2,6.6336885E-2,3.971556E-2,3.8592294E-2,-5.933423E-3,-5.650993E-2,7.594193E-3],"categories":[],"categories_nodes":[],"categories_segments":[],"categories_sizes":[],"default_left":[0,0,0,0,0,0,0,0,0,0,0,0,0,0,0,0,0,0,0,0,0,0,0,0,0,0,0,0,0,0,0,0,0],"id":1,"left_children":[1,-1,3,5,7,9,11,13,-1,15,17,-1,-1,19,21,23,-1,25,-1,27,-1,29,31,-1,-1,-1,-1,-1,-1,-1,-1,-1,-1],"loss_changes":[3.829014E2,0E0,2.2339037E2,1.7447894E2,1.2742071E2,9.498631E1,9.767498E0,9.564189E1,0E0,1.4571268E1,3.5958008E1,0E0,0E0,3.092331E1,2.7158226E1,7.822888E0,0E0,1.178244E1,0E0,1.4689819E1,0E0,2.0187077E1,2.259401E1,0E0,0E0,0E0,0E0,0E0,0E0,0E0,0E0,0E0,0E0],"parents":[2147483647,0,0,2,2,3,3,4,4,5,5,6,6,7,7,9,9,10,10,13,13,14,14,15,15,17,17,19,19,21,21,22,22],"right_children":[2,-1,4,6,8,10,12,14,-1,16,18,-1,-1,20,22,24,-1,26,-1,28,-1,30,32,-1,-1,-1,-1,-1,-1,-1,-1,-1,-1],"split_conditions":[-1.0105424E0,-1.7476436E-1,-2.8619418E-2,8.3380437E-1,-3.0861858E-1,-7.551146E-1,-6.4585596E-1,-5.694894E-1,-8.4701635E-2,-6.2044024E-1,-2.032076E-1,4.8611213E-2,-0E0,1.0956516E0,1.8643444E0,-5.217131E-1,-4.4154633E-2,7.975366E-2,-2.1071978E-2,-1.3310096E0,-0E0,-6.3375384E-1,-7.4843556E-1,-1.6631057E-2,2.4112923E-2,-1.2961474E-1,-6.582127E-2,6.6336885E-2,3.971556E-2,3.8592294E-2,-5.933423E-3,-5.650993E-2,7.594193E-3],"split_indices":[21,0,140,155,156,155,75,75,0,21,76,0,0,130,140,18,0,118,0,40,0,111,33,0,0,0,0,0,0,0,0,0,0],"split_type":[0,0,0,0,0,0,0,0,0,0,0,0,0,0,0,0,0,0,0,0,0,0,0,0,0,0,0,0,0,0,0,0,0],"sum_hessian":[2.6E2,1E1,2.5E2,7.7E1,1.73E2,5.6E1,2.1E1,1.65E2,8E0,2.4E1,3.2E1,1.5E1,6E0,1.13E2,5.2E1,1.5E1,9E0,2.6E1,6E0,1.01E2,1.2E1,3.4E1,1.8E1,8E0,7E0,1.7E1,9E0,4.4E1,5.7E1,1.5E1,1.9E1,1.1E1,7E0],"tree_param":{"num_deleted":"0","num_feature":"157","num_nodes":"33","size_leaf_vector":"1"}},{"base_weights":[-4.5899916E-2,-2.1743987E0,6.653237E-1,-4.264442E0,-4.016663E-1,1.0132803E0,-5.189103E-1,-5.60857E0,-5.8272388E-2,2.9348776E-1,-1.1108812E-1,1.9986047E-1,1.3417726E0,-2.1291938E0,3.7503952E-1,-2.1627446E-1,-1.287121E-1,8.2642776E-1,-3.9399486E-2,-7.7018183E-1,4.7636244E-2,1.8519434E0,7.152306E-1,-9.914971E-2,-2.7309755E-2,2.7206223E-2,-3.347333E-2,1.3136201E0,5.354846E-4,-1.3918259E0,6.9630076E-3,1.4665365E0,7.1238644E-2,-6.314172E-2,4.0820196E-2,-1.3369702E-2,4.5261937E-3,5.362232E-2,1.7434973E-2,-6.269779E-2,-0E0,2.188953E-2,4.818538E-2,2.5776828E-2,-2.1821678E-2],"categories":[],"categories_nodes":[],"categories_segments":[],"categories_sizes":[],"default_left":[0,0,0,0,0,0,0,0,0,0,0,0,0,0,0,0,0,0,0,0,0,0,0,0,0,0,0,0,0,0,0,0,0,0,0,0,0,0,0,0,0,0,0,0,0],"id":2,"left_children":[1,3,5,7,9,11,13,15,-1,17,-1,19,21,23,25,-1,-1,27,-1,29,-1,31,33,-1,-1,-1,35,37,-1,39,-1,41,-1,43,-1,-1,-1,-1,-1,-1,-1,-1,-1,-1,-1],"loss_changes":[4.0941525E2,2.4590121E2,8.4012535E1,8.037335E1,9.11077E1,4.037111E1,6.810192E1,4.536194E0,0E0,2.7835823E1,0E0,6.512245E1,3.2154297E1,1.8268219E1,7.308052E0,0E0,0E0,8.623444E0,0E0,1.8604877E1,0E0,6.192276E0,2.7500067E1,0E0,0E0,0E0,1.5983279E0,2.3372326E0,0E0,1.7642395E1,0E0,1.1369019E0,0E0,1.515169E1,0E0,0E0,0E0,0E0,0E0,0E0,0E0,0E0,0E0,0E0,0E0],"parents":[2147483647,0,0,1,1,2,2,3,3,4,4,5,5,6,6,7,7,9,9,11,11,12,12,13,13,14,14,17,17,19,19,21,21,22,22,26,26,27,27,29,29,31,31,33,33],"right_children":[2,4,6,8,10,12,14,16,-1,18,-1,20,22,24,26,-1,-1,28,-1,30,-1,32,34,-1,-1,-1,36,38,-1,40,-1,42,-1,44,-1,-1,-1,-1,-1,-1,-1,-1,-1,-1,-1],"split_conditions":[1.9249608E-1,-7.6614255E-3,1.5133522E0,-7.3628426E-1,-4.3561152E-1,-1.083108E-1,4.7234574E-1,-6.314374E-1,-5.8272388E-2,1.8612909E0,-1.1108812E-1,8.8486207E-1,-8.002107E-1,1.2400018E0,-8.3513653E-1,-2.1627446E-1,-1.287121E-1,-2.7429324E-1,-3.9399486E-2,1.5575242E-1,4.7636244E-2,1.3333818E-1,1.9537E0,-9.914971E-2,-2.7309755E-2,2.7206223E-2,-5.0483847E-1,-8.98384E-1,5.354846E-4,1.6025655E-1,6.9630076E-3,1.5553156E0,7.1238644E-2,-2.485264E-1,4.0820196E-2,-1.3369702E-2,4.5261937E-3,5.362232E-2,1.7434973E-2,-6.269779E-2,-0E0,2.188953E-2,4.818538E-2,2.5776828E-2,-2.1821678E-2],"split_indices":[144,140,145,146,156,140,140,106,0,140,0,154,151,28,63,0,0,144,0,152,0,152,139,0,0,0,152,151,0,150,0,132,0,147,0,0,0,0,0,0,0,0,0,0,0],"split_type":[0,0,0,0,0,0,0,0,0,0,0,0,0,0,0,0,0,0,0,0,0,0,0,0,0,0,0,0,0,0,0,0,0,0,0,0,0,0,0,0,0,0,0,0,0],"sum_hessian":[2.68E2,6.7E1,2.01E2,3E1,3.7E1,1.56E2,4.5E1,1.8E1,1.2E1,3.1E1,6E0,4.6E1,1.1E2,1.6E1,2.9E1,6E0,1.2E1,2.4E1,7E0,2.7E1,1.9E1,5.9E1,5.1E1,7E0,9E0,1.3E1,1.6E1,1.4E1,1E1,1.7E1,1E1,3.7E1,2.2E1,2.3E1,2.8E1,6E0,1E1,7E0,7E0,1.1E1,6E0,8E0,2.9E1,9E0,1.4E1],"tree_param":{"num_deleted":"0","num_feature":"157","num_nodes":"45","size_leaf_vector":"1"}},{"base_weights":[1.2243875E-1,-1.6409563E0,7.1885103E-1,-2.8082619E0,-3.35672E-1,-8.972296E-1,9.7115713E-1,-6.923163E-1,-1.2424581E-1,-1.3729663E0,9.427469E-1,-1.7237226E0,3.5302937E-2,1.1452687E0,-3.7736556E-1,4.345454E-3,-5.4248553E-2,-0E0,-6.534685E-2,2.5101095E-3,5.4177187E-2,-0E0,-7.95348E-2,1.4196432E0,4.9496928E-1,1.9846596E-1,-4.8463237E-2,6.303584E-2,1.0889828E0,-1.4976247E-2,8.926199E-1,-3.927194E-4,1.617838E-2,3.8280312E-2,-0E0,-1.8112157E-2,1.8267758E-2,3.2002512E-2,2.5576157E-3],"categories":[],"categories_nodes":[],"categories_segments":[],"categories_sizes":[],"default_left":[0,0,0,0,0,0,0,0,0,0,0,0,0,0,0,0,0,0,0,0,0,0,0,0,0,0,0,0,0,0,0,0,0,0,0,0,0,0,0],"id":3,"left_children":[1,3,5,7,9,11,13,15,-1,17,19,21,-1,23,25,-1,-1,-1,-1,-1,-1,-1,-1,27,29,31,-1,-1,33,35,37,-1,-1,-1,-1,-1,-1,-1,-1],"loss_changes":[2.786929E2,9.836253E1,8.184348E1,9.332797E1,4.494547E1,4.8235046E1,4.1583588E1,1.5612785E1,0E0,2.1187195E1,9.361329E0,3.2152897E1,0E0,2.524115E1,1.5701517E1,0E0,0E0,0E0,0E0,0E0,0E0,0E0,0E0,1.985405E1,1.0454246E1,1.4607174E0,0E0,0E0,1.6269821E1,8.026747E0,2.9731674E0,0E0,0E0,0E0,0E0,0E0,0E0,0E0,0E0],"parents":[2147483647,0,0,1,1,2,2,3,3,4,4,5,5,6,6,7,7,9,9,10,10,11,11,13,13,14,14,23,23,24,24,25,25,28,28,29,29,30,30],"right_children":[2,4,6,8,10,12,14,16,-1,18,20,22,-1,24,26,-1,-1,-1,-1,-1,-1,-1,-1,28,30,32,-1,-1,34,36,38,-1,-1,-1,-1,-1,-1,-1,-1],"split_conditions":[1.9249608E-1,-3.1966934E-1,-6.303805E-1,-3.2985145E-1,1.04409814E-1,6.810635E-1,-6.4830575E-3,1.0391377E0,-1.2424581E-1,-1.0308938E0,1.9121758E0,-7.4869394E-1,3.5302937E-2,1.7402712E0,-4.3724686E-1,4.345454E-3,-5.4248553E-2,-0E0,-6.534685E-2,2.5101095E-3,5.4177187E-2,-0E0,-7.95348E-2,-6.518133E-1,-1.0429027E-1,-3.7867856E-1,-4.8463237E-2,6.303584E-2,-6.4396304E-1,4.742616E-1,7.2496134E-1,-3.927194E-4,1.617838E-2,3.8280312E-2,-0E0,-1.8112157E-2,1.8267758E-2,3.2002512E-2,2.5576157E-3],"split_indices":[144,129,152,81,140,150,112,150,0,45,10,140,0,144,152,0,0,0,0,0,0,0,0,105,105,21,0,0,63,149,135,0,0,0,0,0,0,0,0],"split_type":[0,0,0,0,0,0,0,0,0,0,0,0,0,0,0,0,0,0,0,0,0,0,0,0,0,0,0,0,0,0,0,0,0,0,0,0,0,0,0],"sum_hessian":[2.64E2,6.6E1,1.98E2,3.4E1,3.2E1,2.6E1,1.72E2,1.4E1,2E1,1.8E1,1.4E1,1.9E1,7E0,1.53E2,1.9E1,8E0,6E0,7E0,1.1E1,8E0,6E0,7E0,1.2E1,1.06E2,4.7E1,1.3E1,6E0,3.2E1,7.4E1,2E1,2.7E1,7E0,6E0,6.3E1,1.1E1,1.1E1,9E0,2.1E1,6E0],"tree_param":{"num_deleted":"0","num_feature":"157","num_nodes":"39","size_leaf_vector":"1"}},{"base_weights":[1.2339994E-1,-3.7938442E0,4.202911E-1,-4.228684E-2,-1.6013698E-1,5.585725E-1,-7.792468E-2,-7.8128284E-1,8.0134827E-1,2.9048216E-2,-9.247996E-2,-6.3908505E-1,1.02779E0,-1.871383E-2,4.7380835E-1,2.4013069E-2,-1.4097426E0,1.997119E0,7.0019186E-1,2.1368898E-2,-0E0,-7.6778814E-2,1.5291594E-3,6.512985E-2,1.8069044E-2,-0E0,3.1808026E-2],"categories":[],"categories_nodes":[],"categories_segments":[],"categories_sizes":[],"default_left":[0,0,0,0,0,0,0,0,0,0,0,0,0,0,0,0,0,0,0,0,0,0,0,0,0,0,0],"id":4,"left_children":[1,3,5,-1,-1,7,-1,9,11,13,-1,15,17,-1,19,-1,21,23,25,-1,-1,-1,-1,-1,-1,-1,-1],"loss_changes":[3.1106897E2,5.83183E1,1.0458419E2,0E0,0E0,7.886383E1,0E0,7.182674E1,6.767464E1,8.230268E0,0E0,3.239354E1,5.302707E1,0E0,1.5461287E0,0E0,3.4224792E1,7.8404083E0,3.4793457E1,0E0,0E0,0E0,0E0,0E0,0E0,0E0,0E0],"parents":[2147483647,0,0,1,1,2,2,5,5,7,7,8,8,9,9,11,11,12,12,14,14,16,16,17,17,18,18],"right_children":[2,4,6,-1,-1,8,-1,10,12,14,-1,16,18,-1,20,-1,22,24,26,-1,-1,-1,-1,-1,-1,-1,-1],"split_conditions":[-1.100995E0,-1.1091316E0,0E0,-4.228684E-2,-1.6013698E-1,-8.519724E-2,-7.792468E-2,4.0231282E-1,0E0,-1.2979536E-1,-9.247996E-2,-5.293144E-1,-6.518133E-1,-1.871383E-2,-1.9112712E-1,2.4013069E-2,-5.5377924E-1,-1.3267487E0,1.5553156E0,2.1368898E-2,-0E0,-7.6778814E-2,1.5291594E-3,6.512985E-2,1.8069044E-2,-0E0,3.1808026E-2],"split_indices":[34,51,100,0,0,102,0,148,132,151,0,112,105,0,129,0,63,40,132,0,0,0,0,0,0,0,0],"split_type":[0,0,0,0,0,0,0,0,0,0,0,0,0,0,0,0,0,0,0,0,0,0,0,0,0,0,0],"sum_hessian":[2.68E2,1.8E1,2.5E2,8E0,1E1,2.4E2,1E1,3.6E1,2.04E2,2.7E1,9E0,2.7E1,1.77E2,1E1,1.7E1,9E0,1.8E1,4.3E1,1.34E2,1E1,7E0,1E1,8E0,3.7E1,6E0,4.6E1,8.8E1],"tree_param":{"num_deleted":"0","num_feature":"157","num_nodes":"27","size_leaf_vector":"1"}},{"base_weights":[-6.5857368E-3,-2.1738412E0,6.918512E-1,-4.239992E0,-6.3912565E-1,-3.6390284E-1,1.1412323E0,-5.4157124E0,-6.007185E-2,6.411311E-2,-9.115177E-2,-1.5946187E0,9.330354E-1,1.3820871E0,-3.3430837E-2,-1.0446942E-1,-2.1324489E-1,1.0204748E0,-1.0421039E0,-9.380697E-2,-4.2522892E-1,1.4493166E0,-1.4819809E-2,1.5804721E0,3.7380725E-1,3.2426894E-1,-2.2933997E-2,5.3972166E-2,6.604618E-3,-9.536214E-3,-4.3404516E-2,-0E0,-2.983795E-2,4.9280725E-2,2.0356756E-2,1.658933E0,6.936811E-3,2.1984529E-2,-9.992488E-3,-0E0,2.1572687E-2,6.45691E-2,3.9822135E-2],"categories":[],"categories_nodes":[],"categories_segments":[],"categories_sizes":[],"default_left":[0,0,0,0,0,0,0,0,0,0,0,0,0,0,0,0,0,0,0,0,0,0,0,0,0,0,0,0,0,0,0,0,0,0,0,0,0,0,0,0,0,0,0],"id":5,"left_children":[1,3,5,7,9,11,13,15,-1,17,-1,19,21,23,25,-1,-1,27,29,-1,31,33,-1,35,37,39,-1,-1,-1,-1,-1,-1,-1,-1,-1,41,-1,-1,-1,-1,-1,-1,-1],"loss_changes":[3.9577628E2,1.9599628E2,9.437886E1,5.498352E1,6.6934814E1,9.566397E1,4.0460205E1,2.6184845E1,0E0,3.2397915E1,0E0,5.16791E1,2.2669693E1,2.102069E1,6.8440666E0,0E0,0E0,8.5365925E0,2.2267704E0,0E0,5.4117904E0,4.7346115E-1,0E0,8.209854E0,5.8963394E0,2.4217386E0,0E0,0E0,0E0,0E0,0E0,0E0,0E0,0E0,0E0,9.373413E0,0E0,0E0,0E0,0E0,0E0,0E0,0E0],"parents":[2147483647,0,0,1,1,2,2,3,3,4,4,5,5,6,6,7,7,9,9,11,11,12,12,13,13,14,14,17,17,18,18,20,20,21,21,23,23,24,24,25,25,35,35],"right_children":[2,4,6,8,10,12,14,16,-1,18,-1,20,22,24,26,-1,-1,28,30,-1,32,34,-1,36,38,40,-1,-1,-1,-1,-1,-1,-1,-1,-1,42,-1,-1,-1,-1,-1,-1,-1],"split_conditions":[1.9249608E-1,-7.6614255E-3,7.300421E-3,-1.2862413E-1,3.3349502E-1,-1.7756344E-1,-1.7337596E-2,5.217866E-1,-6.007185E-2,-5.717602E-1,-9.115177E-2,-1.4924537E-1,5.2981186E-1,-4.79588E-1,-5.002976E-1,-1.0446942E-1,-2.1324489E-1,-5.8139145E-1,0E0,-9.380697E-2,-1.4075763E0,-6.621302E-1,-1.4819809E-2,3.4571114E-1,-2.372329E-1,1.9824669E0,-2.2933997E-2,5.3972166E-2,6.604618E-3,-9.536214E-3,-4.3404516E-2,-0E0,-2.983795E-2,4.9280725E-2,2.0356756E-2,-1.3310096E0,6.936811E-3,2.1984529E-2,-9.992488E-3,-0E0,2.1572687E-2,6.45691E-2,3.9822135E-2],"split_indices":[144,140,140,129,22,134,22,81,0,75,0,129,45,75,154,0,0,144,61,0,40,75,0,88,147,138,0,0,0,0,0,0,0,0,0,40,0,0,0,0,0,0,0],"split_type":[0,0,0,0,0,0,0,0,0,0,0,0,0,0,0,0,0,0,0,0,0,0,0,0,0,0,0,0,0,0,0,0,0,0,0,0,0,0,0,0,0,0,0],"sum_hessian":[2.59E2,6.3E1,1.96E2,2.6E1,3.7E1,5.8E1,1.38E2,1.6E1,1E1,2.9E1,8E0,3E1,2.8E1,1.15E2,2.3E1,9E0,7E0,1.6E1,1.3E1,1.2E1,1.8E1,2.1E1,7E0,9.5E1,2E1,1.5E1,8E0,7E0,9E0,6E0,7E0,1E1,8E0,1.5E1,6E0,8.9E1,6E0,1.4E1,6E0,8E0,7E0,3.2E1,5.7E1],"tree_param":{"num_deleted":"0","num_feature":"157","num_nodes":"43","size_leaf_vector":"1"}},{"base_weights":[-5.322972E-2,-2.6967323E0,3.1404462E-1,-5.1157274E0,-5.134173E-1,-5.158143E-1,8.8978183E-1,-8.236874E-2,-1.8998976E-1,9.000177E-3,-5.9366874E-2,-2.2490222E0,5.9976053E-1,-1.0872809E0,1.1332831E0,-1.0195214E0,-3.0170662E0,1.1894578E0,-8.1003827E-1,8.119432E-3,-8.474739E-2,1.3545289E0,-7.2504524E-3,1.281052E-3,-5.2496787E-2,-1.0844313E-1,-3.2822747E-2,4.5877077E-2,5.065454E-1,-3.1588415E-3,-5.089518E-2,1.1090527E0,6.3489184E-2,-1.7511379E-2,2.1755141E-1,4.64885E-4,2.3826282E-2,3.725844E-2,-1.2181605E-2,1.2931041E-2,-0E0],"categories":[],"categories_nodes":[],"categories_segments":[],"categories_sizes":[],"default_left":[0,0,0,0,0,0,0,0,0,0,0,0,0,0,0,0,0,0,0,0,0,0,0,0,0,0,0,0,0,0,0,0,0,0,0,0,0,0,0,0,0],"id":6,"left_children":[1,3,5,7,9,11,13,-1,-1,-1,-1,15,17,19,21,23,25,27,29,-1,-1,31,33,-1,-1,-1,-1,-1,35,-1,-1,37,-1,-1,39,-1,-1,-1,-1,-1,-1],"loss_changes":[2.5303362E2,1.6110754E2,1.0906314E2,2.1504028E1,2.3357832E1,1.8197336E2,6.595133E1,0E0,0E0,0E0,0E0,2.8816498E1,4.8347412E1,3.8114742E1,3.1641388E1,1.3949886E1,1.8494034E1,7.317684E0,8.914852E0,0E0,0E0,1.4631454E1,3.0003881E0,0E0,0E0,0E0,0E0,0E0,1.5635767E0,0E0,0E0,1.8010056E1,0E0,0E0,6.2602437E-1,0E0,0E0,0E0,0E0,0E0,0E0],"parents":[2147483647,0,0,1,1,2,2,3,3,4,4,5,5,6,6,11,11,12,12,13,13,14,14,15,15,16,16,17,17,18,18,21,21,22,22,28,28,31,31,34,34],"right_children":[2,4,6,8,10,12,14,-1,-1,-1,-1,16,18,20,22,24,26,28,30,-1,-1,32,34,-1,-1,-1,-1,-1,36,-1,-1,38,-1,-1,40,-1,-1,-1,-1,-1,-1],"split_conditions":[-3.0016822E-1,-6.381789E-1,-2.9382047E-1,4.9877512E-1,-7.8907675E-1,3.5896483E-1,5.425031E-1,-8.236874E-2,-1.8998976E-1,9.000177E-3,-5.9366874E-2,-6.0745096E-1,6.474707E-1,6.441831E-1,-6.113092E-1,-8.5851985E-1,9.7264576E-1,-7.930154E-1,-5.5018795E-1,8.119432E-3,-8.474739E-2,3.6048076E-1,4.9014166E-2,1.281052E-3,-5.2496787E-2,-1.0844313E-1,-3.2822747E-2,4.5877077E-2,-1.7952038E-1,-3.1588415E-3,-5.089518E-2,9.484193E-2,6.3489184E-2,-1.7511379E-2,5.3423077E-2,4.64885E-4,2.3826282E-2,3.725844E-2,-1.2181605E-2,1.2931041E-2,-0E0],"split_indices":[150,146,39,147,155,134,132,0,0,0,0,155,134,58,75,39,40,76,75,0,0,117,76,0,0,0,0,0,61,0,0,146,0,0,147,0,0,0,0,0,0],"split_type":[0,0,0,0,0,0,0,0,0,0,0,0,0,0,0,0,0,0,0,0,0,0,0,0,0,0,0,0,0,0,0,0,0,0,0,0,0,0,0,0,0],"sum_hessian":[2.57E2,3.1E1,2.26E2,1.4E1,1.7E1,9.2E1,1.34E2,6E0,8E0,1.1E1,6E0,3.6E1,5.6E1,1.4E1,1.2E2,1.5E1,2.1E1,4E1,1.6E1,8E0,6E0,1.01E2,1.9E1,6E0,9E0,1.5E1,6E0,2.5E1,1.5E1,1E1,6E0,7.9E1,2.2E1,6E0,1.3E1,7E0,8E0,7.3E1,6E0,6E0,7E0],"tree_param":{"num_deleted":"0","num_feature":"157","num_nodes":"41","size_leaf_vector":"1"}},{"base_weights":[-1.4930993E-1,-2.3984659E0,3.4584782E-1,-7.3257875E-1,-4.64939E0,-1.0225099E0,8.3171946E-1,-1.7484266E0,6.5991104E-1,-1.860964E-1,-9.5352896E-2,2.777809E-1,-1.9497547E0,9.7104776E-1,-5.9527498E-2,-1.6094312E-2,-8.463769E-2,3.5999573E-3,2.9701589E-2,4.5775183E-2,-4.624026E-1,-6.927114E-1,-3.0695062E0,-2.3494234E-2,1.049352E0,-3.4295972E-2,7.5139357E-3,-4.8271876E-2,9.093465E-3,-4.7580525E-2,-1.14149064E-1,1.5223844E0,6.795669E-1,4.89145E-2,1.552275E-2,-1.623909E-3,2.6226232E-2],"categories":[],"categories_nodes":[],"categories_segments":[],"categories_sizes":[],"default_left":[0,0,0,0,0,0,0,0,0,0,0,0,0,0,0,0,0,0,0,0,0,0,0,0,0,0,0,0,0,0,0,0,0,0,0,0,0],"id":7,"left_children":[1,3,5,7,9,11,13,15,17,-1,-1,19,21,23,-1,-1,-1,-1,-1,-1,25,27,29,-1,31,-1,-1,-1,-1,-1,-1,33,35,-1,-1,-1,-1],"loss_changes":[3.0737302E2,1.7944183E2,1.500032E2,4.4050003E1,2.369934E1,7.278224E1,6.6404785E1,1.9307953E1,1.2702789E0,0E0,0E0,2.4565037E1,4.4068573E1,2.2902832E1,0E0,0E0,0E0,0E0,0E0,0E0,8.758568E0,1.7954796E1,1.0253311E1,0E0,2.4185928E1,0E0,0E0,0E0,0E0,0E0,0E0,5.1572876E0,1.37264595E1,0E0,0E0,0E0,0E0],"parents":[2147483647,0,0,1,1,2,2,3,3,4,4,5,5,6,6,7,7,8,8,11,11,12,12,13,13,20,20,21,21,22,22,24,24,31,31,32,32],"right_children":[2,4,6,8,10,12,14,16,18,-1,-1,20,22,24,-1,-1,-1,-1,-1,-1,26,28,30,-1,32,-1,-1,-1,-1,-1,-1,34,36,-1,-1,-1,-1],"split_conditions":[-6.0821646E-1,1.3395071E-2,1.9249608E-1,1.5553156E0,-8.085407E-1,1.6794062E-1,1.2403272E0,1.3354047E-1,-7.4429256E-1,-1.860964E-1,-9.5352896E-2,-6.463629E-1,-6.977048E-1,7.168661E-2,-5.9527498E-2,-1.6094312E-2,-8.463769E-2,3.5999573E-3,2.9701589E-2,4.5775183E-2,-1.2953452E0,-3.4987694E-1,-7.0568854E-1,-2.3494234E-2,-7.701381E-1,-3.4295972E-2,7.5139357E-3,-4.8271876E-2,9.093465E-3,-4.7580525E-2,-1.14149064E-1,-4.6301866E-1,-8.519724E-2,4.89145E-2,1.552275E-2,-1.623909E-3,2.6226232E-2],"split_indices":[152,147,144,132,51,57,34,139,63,0,0,126,129,128,0,0,0,0,0,0,9,123,22,0,3,0,0,0,0,0,0,22,102,0,0,0,0],"split_type":[0,0,0,0,0,0,0,0,0,0,0,0,0,0,0,0,0,0,0,0,0,0,0,0,0,0,0,0,0,0,0,0,0,0,0,0,0],"sum_hessian":[2.73E2,4.9E1,2.24E2,2.9E1,2E1,5.8E1,1.66E2,1.7E1,1.2E1,8E0,1.2E1,2.4E1,3.4E1,1.59E2,7E0,9E0,8E0,6E0,6E0,9E0,1.5E1,1.7E1,1.7E1,6E0,1.53E2,8E0,7E0,9E0,8E0,7E0,1E1,6.5E1,8.8E1,5.7E1,8E0,1.8E1,7E1],"tree_param":{"num_deleted":"0","num_feature":"157","num_nodes":"37","size_leaf_vector":"1"}},{"base_weights":[1.021714E-1,-1.5973876E0,6.599853E-1,-2.5391889E0,1.4861801E-1,7.9313964E-1,-7.509001E-2,-4.515814E0,-1.0020672E0,-2.7487481E-2,1.1082561E0,1.0918683E0,-6.442177E-2,-1.854806E-1,-9.403604E-2,-1.9654292E0,-0E0,5.3287037E-2,5.1697795E-3,-2.0471215E-2,1.2385612E0,-4.8767608E-2,1.6688623E-1,-8.644269E-2,-2.0107483E-2,-2.7814474E-2,2.9232074E-2,9.3769497E-1,1.909934E0,8.670876E-1,-2.8868842E-1,-2.7749255E-2,3.3091508E-2,6.086773E-2,2.7823126E-2,8.7059755E-3,3.3983037E-2,-5.54184E-2,6.560834E-3],"categories":[],"categories_nodes":[],"categories_segments":[],"categories_sizes":[],"default_left":[0,0,0,0,0,0,0,0,0,0,0,0,0,0,0,0,0,0,0,0,0,0,0,0,0,0,0,0,0,0,0,0,0,0,0,0,0,0,0],"id":8,"left_children":[1,3,5,7,9,11,-1,13,15,-1,17,19,21,-1,-1,23,25,-1,-1,-1,27,-1,29,-1,-1,-1,-1,31,33,35,37,-1,-1,-1,-1,-1,-1,-1,-1],"loss_changes":[2.4543465E2,1.0728491E2,8.2979324E1,1.18659515E2,2.4416933E1,4.930284E1,0E0,1.733078E1,2.4594978E1,0E0,6.197502E0,3.788948E1,1.9195929E1,0E0,0E0,1.0780647E1,1.2463743E1,0E0,0E0,0E0,2.2536133E1,0E0,1.4355725E1,0E0,0E0,0E0,0E0,3.065522E1,8.330231E-1,1.295577E0,2.231642E1,0E0,0E0,0E0,0E0,0E0,0E0,0E0,0E0],"parents":[2147483647,0,0,1,1,2,2,3,3,4,4,5,5,7,7,8,8,10,10,11,11,12,12,15,15,16,16,20,20,22,22,27,27,28,28,29,29,30,30],"right_children":[2,4,6,8,10,12,-1,14,16,-1,18,20,22,-1,-1,24,26,-1,-1,-1,28,-1,30,-1,-1,-1,-1,32,34,36,38,-1,-1,-1,-1,-1,-1,-1,-1],"split_conditions":[5.737285E-2,-1.618873E-1,1.1165893E0,-6.354713E-1,1.0235716E-1,-5.645694E-1,-7.509001E-2,-5.481524E-1,8.0871284E-1,-2.7487481E-2,-6.6280293E-1,0E0,2.431671E-2,-1.854806E-1,-9.403604E-2,-2.6200932E-1,-3.6607456E-1,5.3287037E-2,5.1697795E-3,-2.0471215E-2,0E0,-4.8767608E-2,5.602988E-2,-8.644269E-2,-2.0107483E-2,-2.7814474E-2,2.9232074E-2,-4.5521006E-1,-8.2096833E-1,-7.55376E-1,3.5078313E-2,-2.7749255E-2,3.3091508E-2,6.086773E-2,2.7823126E-2,8.7059755E-3,3.3983037E-2,-5.54184E-2,6.560834E-3],"split_indices":[144,39,87,75,88,75,0,39,143,0,106,132,73,0,0,144,52,0,0,0,39,0,1,0,0,0,0,112,154,154,69,0,0,0,0,0,0,0,0],"split_type":[0,0,0,0,0,0,0,0,0,0,0,0,0,0,0,0,0,0,0,0,0,0,0,0,0,0,0,0,0,0,0,0,0,0,0,0,0,0,0],"sum_hessian":[2.58E2,6.3E1,1.95E2,4.1E1,2.2E1,1.88E2,7E0,1.7E1,2.4E1,1E1,1.2E1,1.4E2,4.8E1,6E0,1.1E1,1.2E1,1.2E1,6E0,6E0,1E1,1.3E2,6E0,4.2E1,6E0,6E0,6E0,6E0,9.2E1,3.8E1,1.7E1,2.5E1,7E0,8.5E1,3.2E1,6E0,7E0,1E1,6E0,1.9E1],"tree_param":{"num_deleted":"0","num_feature":"157","num_nodes":"39","size_leaf_vector":"1"}},{"base_weights":[7.0375E-2,3.1713632E-1,-2.401788E0,-4.8000053E-1,8.6985284E-1,-1.1088231E0,-1.0963233E-1,-2.0590174E0,3.7640703E-1,1.1176028E0,-3.8155422E-1,-5.8376748E-2,-1.1187781E-4,-2.7659283E0,-8.005581E-3,7.9561585E-1,-4.7195192E-2,1.3833342E0,7.948808E-3,-1.0664676E0,1.1346741E-2,-1.6874123E-2,-1.1328308E-1,-1.2843867E-1,1.5662771E0,1.4530559E0,1.4560212E-2,-1.7111544E-2,3.283819E-1,-4.2722516E-2,-1.3389675E-2,-3.7302E-2,4.4413064E-2,5.4560747E-2,1.1252615E-2,4.685189E-2,2.7751539E-2,-0E0,1.50468135E-2],"categories":[],"categories_nodes":[],"categories_segments":[],"categories_sizes":[],"default_left":[0,0,0,0,0,0,0,0,0,0,0,0,0,0,0,0,0,0,0,0,0,0,0,0,0,0,0,0,0,0,0,0,0,0,0,0,0,0,0],"id":9,"left_children":[1,3,5,7,9,11,-1,13,15,17,19,-1,-1,21,-1,23,-1,25,27,29,-1,-1,-1,31,33,35,-1,-1,37,-1,-1,-1,-1,-1,-1,-1,-1,-1,-1],"loss_changes":[1.5368753E2,1.0281034E2,3.011673E1,1.3028687E2,4.3703842E1,1.0327567E1,0E0,3.962256E1,5.109657E1,3.295862E1,1.2820757E1,0E0,0E0,4.851129E1,0E0,3.828947E1,0E0,3.5634918E0,4.382288E0,7.6570415E-1,0E0,0E0,0E0,4.4500065E1,6.5354233E0,1.8624573E0,0E0,0E0,6.8215084E-1,0E0,0E0,0E0,0E0,0E0,0E0,0E0,0E0,0E0,0E0],"parents":[2147483647,0,0,1,1,2,2,3,3,4,4,5,5,7,7,8,8,9,9,10,10,13,13,15,15,17,17,18,18,19,19,23,23,24,24,25,25,28,28],"right_children":[2,4,6,8,10,12,-1,14,16,18,20,-1,-1,22,-1,24,-1,26,28,30,-1,-1,-1,32,34,36,-1,-1,38,-1,-1,-1,-1,-1,-1,-1,-1,-1,-1],"split_conditions":[-3.4001413E-1,1.5553156E0,5.72974E-1,-2.72669E-1,1.8928655E0,1.9557099E-1,-1.0963233E-1,-1.2862413E-1,8.7992567E-1,1.4869833E0,-3.2363027E-1,-5.8376748E-2,-1.1187781E-4,-8.4884065E-1,-8.005581E-3,5.166536E-1,-4.7195192E-2,1.0956516E0,5.0051457E-1,-3.4987694E-1,1.1346741E-2,-1.6874123E-2,-1.1328308E-1,-2.076564E-1,9.7404975E-1,-5.795261E-1,1.4560212E-2,-1.7111544E-2,-1.0429027E-1,-4.2722516E-2,-1.3389675E-2,-3.7302E-2,4.4413064E-2,5.4560747E-2,1.1252615E-2,4.685189E-2,2.7751539E-2,-0E0,1.50468135E-2],"split_indices":[21,132,145,39,140,93,0,129,130,145,34,0,0,39,0,130,0,130,140,123,0,0,0,109,138,75,0,0,105,0,0,0,0,0,0,0,0,0,0],"split_type":[0,0,0,0,0,0,0,0,0,0,0,0,0,0,0,0,0,0,0,0,0,0,0,0,0,0,0,0,0,0,0,0,0,0,0,0,0,0,0],"sum_hessian":[2.53E2,2.31E2,2.2E1,9.4E1,1.37E2,1.2E1,1E1,3.3E1,6.1E1,1.15E2,2.2E1,6E0,6E0,2.3E1,1E1,5.1E1,1E1,9.2E1,2.3E1,1.2E1,1E1,8E0,1.5E1,2.3E1,2.8E1,8.4E1,8E0,7E0,1.6E1,6E0,6E0,1.4E1,9E0,2.2E1,6E0,6.6E1,1.8E1,7E0,9E0],"tree_param":{"num_deleted":"0","num_feature":"157","num_nodes":"39","size_leaf_vector":"1"}},{"base_weights":[4.7373813E-2,-3.0889559E0,3.542956E-1,-4.2944326E0,-6.5018535E-3,-8.2457507E-1,7.2131294E-1,-1.6592823E-1,-8.8671744E-2,-2.007019E0,2.3300011E-1,7.6523945E-2,9.5406693E-1,-7.222718E-3,-2.4653268E0,-1.8599495E-1,5.3525537E-2,-9.2360026E-1,1.0684391E0,1.1082377E0,-1.0345454E-1,-3.0611634E-2,-9.1690525E-2,-3.0446125E-2,4.1651616E-1,-1.462673E-1,-6.6372216E-2,4.7689885E-2,4.0210425E-3,1.2842727E0,3.332294E-2,-2.5534702E-2,1.2458296E-2,2.5585832E-2,-4.2173246E-4,1.0338003E-2,-2.154286E-2,4.2431712E-2,1.630106E-2,1.59403E-2,-2.1306653E-2],"categories":[],"categories_nodes":[],"categories_segments":[],"categories_sizes":[],"default_left":[0,0,0,0,0,0,0,0,0,0,0,0,0,0,0,0,0,0,0,0,0,0,0,0,0,0,0,0,0,0,0,0,0,0,0,0,0,0,0,0,0],"id":10,"left_children":[1,3,5,7,-1,9,11,-1,-1,13,15,17,19,-1,21,23,-1,25,27,29,31,-1,-1,-1,33,35,-1,-1,-1,37,39,-1,-1,-1,-1,-1,-1,-1,-1,-1,-1],"loss_changes":[2.4674687E2,7.437042E1,1.024294E2,5.710968E0,0E0,7.1694115E1,2.6200134E1,0E0,0E0,1.8902122E1,2.1136936E1,5.035242E1,2.2440224E1,0E0,1.2125565E1,1.2832267E1,0E0,2.2803574E1,1.1114456E1,2.07594E1,7.254252E0,0E0,0E0,0E0,3.3503637E0,5.2931075E0,0E0,0E0,0E0,7.7182007E0,6.826932E0,0E0,0E0,0E0,0E0,0E0,0E0,0E0,0E0,0E0,0E0],"parents":[2147483647,0,0,1,1,2,2,3,3,5,5,6,6,9,9,10,10,11,11,12,12,14,14,15,15,17,17,18,18,19,19,20,20,24,24,25,25,29,29,30,30],"right_children":[2,4,6,8,-1,10,12,-1,-1,14,16,18,20,-1,22,24,-1,26,28,30,32,-1,-1,-1,34,36,-1,-1,-1,38,40,-1,-1,-1,-1,-1,-1,-1,-1,-1,-1],"split_conditions":[-1.018961E0,6.5928537E-1,1.9249608E-1,-8.1826705E-1,-6.5018535E-3,3.1201845E-1,-1.083108E-1,-1.6592823E-1,-8.8671744E-2,-7.2864103E-1,1.5214369E0,-1.7756344E-1,-4.9471927E-1,-7.222718E-3,-1.9067076E-1,1.5553156E0,5.3525537E-2,-5.1996946E-1,-3.4001413E-1,1.8928655E0,7.8332424E-1,-3.0611634E-2,-9.1690525E-2,-3.0446125E-2,1.5886575E0,-4.3354914E-1,-6.6372216E-2,4.7689885E-2,4.0210425E-3,-6.206791E-1,-1.4180393E0,-2.5534702E-2,1.2458296E-2,2.5585832E-2,-4.2173246E-4,1.0338003E-2,-2.154286E-2,4.2431712E-2,1.630106E-2,1.59403E-2,-2.1306653E-2],"split_indices":[16,144,144,140,0,140,140,0,0,155,28,134,21,0,139,132,0,106,21,140,4,0,0,0,145,148,0,0,0,63,146,0,0,0,0,0,0,0,0,0,0],"split_type":[0,0,0,0,0,0,0,0,0,0,0,0,0,0,0,0,0,0,0,0,0,0,0,0,0,0,0,0,0,0,0,0,0,0,0,0,0,0,0,0,0],"sum_hessian":[2.57E2,2.2E1,2.35E2,1.5E1,7E0,5.5E1,1.8E2,6E0,9E0,2.6E1,2.9E1,4.9E1,1.31E2,6E0,2E1,2.3E1,6E0,2.4E1,2.5E1,1.15E2,1.6E1,7E0,1.3E1,1E1,1.3E1,1.6E1,8E0,1.5E1,1E1,9.8E1,1.7E1,7E0,9E0,7E0,6E0,8E0,8E0,8.1E1,1.7E1,1.1E1,6E0],"tree_param":{"num_deleted":"0","num_feature":"157","num_nodes":"41","size_leaf_vector":"1"}},{"base_weights":[-0E0,-1.8269917E0,3.9513162E-1,-2.7163005E0,5.8788646E-2,-1.2636434E0,6.069791E-1,-3.6473594E0,-2.2006107E-2,3.355761E-2,-1.7891176E-2,-1.853305E0,-3.6309997E-3,1.0477293E0,-4.5273456E-1,-5.120886E-2,-1.2646374E-1,-7.9282366E-2,-2.6045421E-2,1.1807806E0,-1.6398758E-2,-1.6448699E0,-9.256325E-2,1.2837911E0,-0E0,-6.495327E-2,-2.3611302E-2,2.889845E-1,-1.1596584E0,4.2020634E-2,8.014976E-3,1.701242E-2,-2.6855688E-3,-6.0054522E-2,-1.286319E-3],"categories":[],"categories_nodes":[],"categories_segments":[],"categories_sizes":[],"default_left":[0,0,0,0,0,0,0,0,0,0,0,0,0,0,0,0,0,0,0,0,0,0,0,0,0,0,0,0,0,0,0,0,0,0,0],"id":11,"left_children":[1,3,5,7,9,11,13,15,-1,-1,-1,17,-1,19,21,-1,-1,-1,-1,23,-1,25,27,29,-1,-1,-1,31,33,-1,-1,-1,-1,-1,-1],"loss_changes":[1.9408879E2,8.258498E1,7.766612E1,5.4536728E1,1.2094348E1,1.4847355E1,9.282212E1,1.3852203E1,0E0,0E0,0E0,7.5592422E0,0E0,3.0780853E1,2.3222816E1,0E0,0E0,0E0,0E0,1.6476654E1,0E0,1.8828659E0,1.966983E1,1.337233E1,0E0,0E0,0E0,4.05242E0,1.0383024E1,0E0,0E0,0E0,0E0,0E0,0E0],"parents":[2147483647,0,0,1,1,2,2,3,3,4,4,5,5,6,6,7,7,11,11,13,13,14,14,19,19,21,21,22,22,23,23,27,27,28,28],"right_children":[2,4,6,8,10,12,14,16,-1,-1,-1,18,-1,20,22,-1,-1,-1,-1,24,-1,26,28,30,-1,-1,-1,32,34,-1,-1,-1,-1,-1,-1],"split_conditions":[-6.0821646E-1,1.5553156E0,5.425031E-1,1.3989307E0,3.4390786E-1,1.5966824E0,-5.645694E-1,6.566775E-1,-2.2006107E-2,3.355761E-2,-1.7891176E-2,3.5613608E-1,-3.6309997E-3,9.6808153E-1,-2.6829067E-1,-5.120886E-2,-1.2646374E-1,-7.9282366E-2,-2.6045421E-2,1.0956516E0,-1.6398758E-2,-4.761458E-1,5.55343E-1,1.02265954E-1,-0E0,-6.495327E-2,-2.3611302E-2,-2.616675E-3,1.9351335E0,4.2020634E-2,8.014976E-3,1.701242E-2,-2.6855688E-3,-6.0054522E-2,-1.286319E-3],"split_indices":[152,132,132,52,57,138,75,130,0,0,0,118,0,104,10,0,0,0,0,130,0,34,139,146,0,0,0,52,138,0,0,0,0,0,0],"split_type":[0,0,0,0,0,0,0,0,0,0,0,0,0,0,0,0,0,0,0,0,0,0,0,0,0,0,0,0,0,0,0,0,0,0,0],"sum_hessian":[2.67E2,4.7E1,2.2E2,3.2E1,1.5E1,2.4E1,1.96E2,2.1E1,1.1E1,6E0,9E0,1.5E1,9E0,1.39E2,5.7E1,6E0,1.5E1,7E0,8E0,1.29E2,1E1,1.2E1,4.5E1,1.19E2,1E1,6E0,6E0,3.3E1,1.2E1,1.05E2,1.4E1,2E1,1.3E1,6E0,6E0],"tree_param":{"num_deleted":"0","num_feature":"157","num_nodes":"35","size_leaf_vector":"1"}},{"base_weights":[-6.7534335E-2,-1.8238842E0,5.3077084E-1,-2.2570206E-2,-2.8132336E0,-9.5652986E-1,6.639222E-1,-4.6701927E-2,6.074377E-1,-3.6080484E0,-1.2134172E-2,3.346689E-3,-7.4771665E-2,-8.02506E-1,8.065272E-1,-1.4397269E-2,3.778694E-2,-4.2789783E0,-5.680455E-2,6.4712157E-3,-5.9003804E-2,9.923436E-1,-3.3441737E-2,-1.6263352E-1,-9.0815045E-2,4.8156675E-2,7.7183384E-1,3.336899E-1,-4.28776E-2,-0E0,2.5443023E-2,-0E0,1.48559455E-2],"categories":[],"categories_nodes":[],"categories_segments":[],"categories_sizes":[],"default_left":[0,0,0,0,0,0,0,0,0,0,0,0,0,0,0,0,0,0,0,0,0,0,0,0,0,0,0,0,0,0,0,0,0],"id":12,"left_children":[1,3,5,7,9,11,13,-1,15,17,-1,-1,-1,19,21,-1,-1,23,-1,-1,-1,25,27,-1,-1,-1,29,31,-1,-1,-1,-1,-1],"loss_changes":[2.7596887E2,1.1661418E2,3.8851776E1,2.5707058E1,7.7288605E1,2.844874E1,3.813669E1,0E0,1.3957985E1,2.4466888E1,0E0,0E0,0E0,2.0786972E1,2.6567833E1,0E0,0E0,1.0768799E1,0E0,0E0,0E0,1.55572815E1,1.6692636E1,0E0,0E0,0E0,6.935055E0,1.5151861E0,0E0,0E0,0E0,0E0,0E0],"parents":[2147483647,0,0,1,1,2,2,3,3,4,4,5,5,6,6,8,8,9,9,13,13,14,14,17,17,21,21,22,22,26,26,27,27],"right_children":[2,4,6,8,10,12,14,-1,16,18,-1,-1,-1,20,22,-1,-1,24,-1,-1,-1,26,28,-1,-1,-1,30,32,-1,-1,-1,-1,-1],"split_conditions":[1.9249608E-1,4.63167E-1,-3.2043064E-1,-1.1842657E-1,-1.5163295E-1,-8.3481276E-1,5.425031E-1,-4.6701927E-2,-2.647533E-1,-2.1620265E-1,-1.2134172E-2,3.346689E-3,-7.4771665E-2,1.2688875E0,-2.4784979E-1,-1.4397269E-2,3.778694E-2,-5.6588095E-1,-5.680455E-2,6.4712157E-3,-5.9003804E-2,9.6638364E-1,-4.1468698E-1,-1.6263352E-1,-9.0815045E-2,4.8156675E-2,-2.6441032E-1,-7.73462E-1,-4.28776E-2,-0E0,2.5443023E-2,-0E0,1.48559455E-2],"split_indices":[144,46,28,150,39,3,132,0,10,133,0,0,0,28,70,0,0,39,0,0,0,144,154,0,0,0,150,154,0,0,0,0,0],"split_type":[0,0,0,0,0,0,0,0,0,0,0,0,0,0,0,0,0,0,0,0,0,0,0,0,0,0,0,0,0,0,0,0,0],"sum_hessian":[2.6E2,6.6E1,1.94E2,2.4E1,4.2E1,1.5E1,1.79E2,7E0,1.7E1,3.1E1,1.1E1,9E0,6E0,1.5E1,1.64E2,6E0,1.1E1,2.1E1,1E1,8E0,7E0,1.35E2,2.9E1,9E0,1.2E1,3.3E1,1.02E2,2.3E1,6E0,9E0,9.3E1,7E0,1.6E1],"tree_param":{"num_deleted":"0","num_feature":"157","num_nodes":"33","size_leaf_vector":"1"}},{"base_weights":[1.931952E-1,-7.9521644E-1,7.864152E-1,5.162658E-1,-2.4482903E0,-6.215427E-1,9.513581E-1,8.9263856E-1,-4.150528E-2,-3.0218415E0,-1.9775243E-2,-5.3931627E-2,1.5674425E-2,1.1652058E0,2.7964622E-2,3.2177813E-2,4.3117723E-1,-3.8184886E0,-1.6964148E0,1.2475972E0,-1.5593744E-4,-1.4106764E-1,1.8072935E-2,1.762465E-2,7.5055106E-4,-1.327314E-1,-6.127014E-2,-2.673852E-2,-6.291594E-2,1.3891224E0,5.046081E-1,-1.8590426E-2,3.3786863E-3,4.9423344E-2,3.0086912E-2,3.2630302E-2,3.6605718E-3],"categories":[],"categories_nodes":[],"categories_segments":[],"categories_sizes":[],"default_left":[0,0,0,0,0,0,0,0,0,0,0,0,0,0,0,0,0,0,0,0,0,0,0,0,0,0,0,0,0,0,0,0,0,0,0,0,0],"id":13,"left_children":[1,3,5,7,9,11,13,15,-1,17,-1,-1,-1,19,21,-1,23,25,27,29,-1,31,-1,-1,-1,-1,-1,-1,-1,33,35,-1,-1,-1,-1,-1,-1],"loss_changes":[1.5050218E2,2.1040996E2,3.811174E1,3.9219574E1,3.9080322E1,2.4732277E1,2.7554825E1,2.258522E0,0E0,2.3604004E1,0E0,0E0,0E0,1.2327545E1,3.2787647E0,0E0,4.8761892E-1,7.8941956E0,4.52713E-1,9.362762E0,0E0,3.1645935E0,0E0,0E0,0E0,0E0,0E0,0E0,0E0,5.6027374E0,3.3122444E0,0E0,0E0,0E0,0E0,0E0,0E0],"parents":[2147483647,0,0,1,1,2,2,3,3,4,4,5,5,6,6,7,7,9,9,13,13,14,14,16,16,17,17,18,18,19,19,21,21,29,29,30,30],"right_children":[2,4,6,8,10,12,14,16,-1,18,-1,-1,-1,20,22,-1,24,26,28,30,-1,32,-1,-1,-1,-1,-1,-1,-1,34,36,-1,-1,-1,-1,-1,-1],"split_conditions":[-2.9382047E-1,1.4933799E-1,-3.0016822E-1,7.424332E-1,2.0809062E0,-1.0053918E0,-6.4585596E-1,-8.4507E-1,-4.150528E-2,-3.43687E-1,-1.9775243E-2,-5.3931627E-2,1.5674425E-2,4.0248188E-1,-1.972392E-2,3.2177813E-2,-3.0398196E-1,-2.7888298E-1,-4.03081E-1,2.6056468E-2,-1.5593744E-4,4.9895427E-1,1.8072935E-2,1.762465E-2,7.5055106E-4,-1.327314E-1,-6.127014E-2,-2.673852E-2,-6.291594E-2,1.8833516E0,5.487354E-1,-1.8590426E-2,3.3786863E-3,4.9423344E-2,3.0086912E-2,3.2630302E-2,3.6605718E-3],"split_indices":[39,10,150,135,10,61,75,3,0,133,0,0,0,148,133,0,58,117,149,109,0,140,0,0,0,0,0,0,0,138,130,0,0,0,0,0,0],"split_type":[0,0,0,0,0,0,0,0,0,0,0,0,0,0,0,0,0,0,0,0,0,0,0,0,0,0,0,0,0,0,0,0,0,0,0,0,0],"sum_hessian":[2.55E2,9.5E1,1.6E2,5.3E1,4.2E1,1.6E1,1.44E2,4.5E1,8E0,3.1E1,1.1E1,8E0,8E0,1.16E2,2.8E1,3E1,1.5E1,1.8E1,1.3E1,1.09E2,7E0,2.1E1,7E0,9E0,6E0,1.2E1,6E0,6E0,7E0,9E1,1.9E1,8E0,1.3E1,5E1,4E1,6E0,1.3E1],"tree_param":{"num_deleted":"0","num_feature":"157","num_nodes":"37","size_leaf_vector":"1"}},{"base_weights":[-1.3485442E-1,-1.9194065E0,2.2395048E-1,-6.55437E-1,-3.6592028E0,8.478297E-1,-3.7781397E-1,-1.641194E0,2.4257658E-1,-6.156054E-2,-1.4516471E-1,-3.335235E-2,1.0162804E0,-1.5473998E0,1.6166143E-1,-2.6038986E-2,-6.568402E-2,-5.713698E-3,1.9462606E-2,-1.3285345E-2,1.118344E0,-2.178892E0,-1.5957056E-1,3.331169E-1,-4.6678744E-2,1.2711629E0,-2.9014781E-4,-8.244585E-2,-2.2893898E-2,-2.0851497E-2,8.17444E-3,8.388069E-1,-1.7347751E-2,4.588676E-2,2.2217369E-2,3.2335658E-2,-8.2559703E-4,3.3408822E-3,-2.1388877E-2],"categories":[],"categories_nodes":[],"categories_segments":[],"categories_sizes":[],"default_left":[0,0,0,0,0,0,0,0,0,0,0,0,0,0,0,0,0,0,0,0,0,0,0,0,0,0,0,0,0,0,0,0,0,0,0,0,0,0,0],"id":14,"left_children":[1,3,5,7,9,11,13,15,17,-1,-1,-1,19,21,23,-1,-1,-1,-1,-1,25,27,29,31,-1,33,-1,-1,-1,-1,-1,35,37,-1,-1,-1,-1,-1,-1],"loss_changes":[1.7520087E2,9.512323E1,8.54406E1,2.6141136E1,2.2093964E1,3.7862732E1,7.382977E1,1.7589226E0,3.1282196E0,0E0,0E0,0E0,1.6465584E1,2.9993614E1,2.2700314E1,0E0,0E0,0E0,0E0,0E0,1.7946236E1,1.5712227E1,3.5134642E0,1.3616141E1,0E0,9.302795E0,0E0,0E0,0E0,0E0,0E0,7.456238E0,4.4516883E0,0E0,0E0,0E0,0E0,0E0,0E0],"parents":[2147483647,0,0,1,1,2,2,3,3,4,4,5,5,6,6,7,7,8,8,12,12,13,13,14,14,20,20,21,21,22,22,23,23,25,25,31,31,32,32],"right_children":[2,4,6,8,10,12,14,16,18,-1,-1,-1,20,22,24,-1,-1,-1,-1,-1,26,28,30,32,-1,34,-1,-1,-1,-1,-1,36,38,-1,-1,-1,-1,-1,-1],"split_conditions":[-6.1839294E-1,1.3395071E-2,-6.58049E-1,1.7322096E-1,-6.11814E-1,-9.004843E-1,1.1660603E0,-4.3361408E-1,-8.665201E-1,-6.156054E-2,-1.4516471E-1,-3.335235E-2,-1.5466044E0,-8.329002E-2,0E0,-2.6038986E-2,-6.568402E-2,-5.713698E-3,1.9462606E-2,-1.3285345E-2,-7.240021E-2,7.574336E-1,5.184707E-1,-8.054552E-1,-4.6678744E-2,1.0418317E0,-2.9014781E-4,-8.244585E-2,-2.2893898E-2,-2.0851497E-2,8.17444E-3,-6.329869E-2,8.458777E-1,4.588676E-2,2.2217369E-2,3.2335658E-2,-8.2559703E-4,3.3408822E-3,-2.1388877E-2],"split_indices":[152,147,75,73,155,15,91,21,152,0,0,0,22,23,97,0,0,0,0,0,112,57,145,151,0,138,0,0,0,0,0,105,86,0,0,0,0,0,0],"split_type":[0,0,0,0,0,0,0,0,0,0,0,0,0,0,0,0,0,0,0,0,0,0,0,0,0,0,0,0,0,0,0,0,0,0,0,0,0,0,0],"sum_hessian":[2.7E2,4.5E1,2.25E2,2.7E1,1.8E1,1.11E2,1.14E2,1.3E1,1.4E1,9E0,9E0,8E0,1.03E2,3.6E1,7.8E1,7E0,6E0,6E0,8E0,6E0,9.7E1,2.4E1,1.2E1,7.2E1,6E0,8.6E1,1.1E1,1.6E1,8E0,6E0,6E0,3E1,4.2E1,5.5E1,3.1E1,2.4E1,6E0,3.5E1,7E0],"tree_param":{"num_deleted":"0","num_feature":"157","num_nodes":"39","size_leaf_vector":"1"}},{"base_weights":[-4.9099542E-2,-1.7797732E0,5.832003E-1,-1.816585E-1,-1.2834541E0,9.666315E-1,-1.3826568E-1,-1.0888669E-1,-8.251829E-1,6.861359E-1,5.103136E-2,-1.1578729E0,5.2993155E-1,-2.319276E-1,-7.491274E-2,8.9582527E-1,-5.041485E-1,-2.002252E0,-1.8335457E-1,-2.5527412E-2,8.7265855E-1,-4.5076035E-2,1.8197136E-1,1.1004909E0,-8.5312955E-2,1.0784696E-2,-3.9245736E-2,-9.16813E-2,-1.2252599E-2,-1.9541632E-2,4.1228877E-3,3.3145703E-2,8.981281E-3,1.8313173E-2,-1.0596934E-2,-5.9792195E-3,3.789281E-2,-2.1724502E-2,1.119804E-2],"categories":[],"categories_nodes":[],"categories_segments":[],"categories_sizes":[],"default_left":[0,0,0,0,0,0,0,0,0,0,0,0,0,0,0,0,0,0,0,0,0,0,0,0,0,0,0,0,0,0,0,0,0,0,0,0,0,0,0],"id":15,"left_children":[1,3,5,-1,7,9,11,-1,13,15,-1,17,19,21,-1,23,25,27,29,-1,31,-1,33,35,37,-1,-1,-1,-1,-1,-1,-1,-1,-1,-1,-1,-1,-1,-1],"loss_changes":[2.8509348E2,1.3658636E2,5.3324074E1,0E0,6.289795E1,2.302446E1,4.5878292E1,0E0,5.198669E1,2.3869331E1,0E0,1.9907856E1,1.9530222E1,2.3483088E1,0E0,1.6968475E1,1.0898102E1,1.953326E1,2.6079507E0,0E0,2.9903603E0,0E0,7.7742496E0,1.5823837E1,4.6129947E0,0E0,0E0,0E0,0E0,0E0,0E0,0E0,0E0,0E0,0E0,0E0,0E0,0E0,0E0],"parents":[2147483647,0,0,1,1,2,2,4,4,5,5,6,6,8,8,9,9,11,11,12,12,13,13,15,15,16,16,17,17,18,18,20,20,22,22,23,23,24,24],"right_children":[2,4,6,-1,8,10,12,-1,14,16,-1,18,20,22,-1,24,26,28,30,-1,32,-1,34,36,38,-1,-1,-1,-1,-1,-1,-1,-1,-1,-1,-1,-1,-1,-1],"split_conditions":[-1.3917002E-1,-1.0105424E0,8.2494706E-1,-1.816585E-1,-1.0108235E0,5.531096E-1,1.5553156E0,-1.0888669E-1,-3.780231E-1,0E0,5.103136E-2,-4.6719265E-1,-1.4164083E0,0E0,-7.491274E-2,4.2202586E-1,-6.620598E-1,-1.2979536E-1,-7.8448874E-1,-2.5527412E-2,1.1323366E-1,-4.5076035E-2,-5.694894E-1,-9.3498844E-1,7.3238206E-1,1.0784696E-2,-3.9245736E-2,-9.16813E-2,-1.2252599E-2,-1.9541632E-2,4.1228877E-3,3.3145703E-2,8.981281E-3,1.8313173E-2,-1.0596934E-2,-5.9792195E-3,3.789281E-2,-2.1724502E-2,1.119804E-2],"split_indices":[144,21,130,0,4,149,132,0,156,18,0,133,146,132,0,1,105,151,149,0,22,0,75,21,70,0,0,0,0,0,0,0,0,0,0,0,0,0,0],"split_type":[0,0,0,0,0,0,0,0,0,0,0,0,0,0,0,0,0,0,0,0,0,0,0,0,0,0,0,0,0,0,0,0,0,0,0,0,0,0,0],"sum_hessian":[2.58E2,6.9E1,1.89E2,6E0,6.3E1,1.24E2,6.5E1,9E0,5.4E1,9.2E1,3.2E1,2.6E1,3.9E1,4.1E1,1.3E1,7.9E1,1.3E1,1.3E1,1.3E1,7E0,3.2E1,1E1,3.1E1,6.6E1,1.3E1,6E0,7E0,7E0,6E0,6E0,7E0,2.1E1,1.1E1,1.8E1,1.3E1,7E0,5.9E1,6E0,7E0],"tree_param":{"num_deleted":"0","num_feature":"157","num_nodes":"39","size_leaf_vector":"1"}},{"base_weights":[2.4163395E-2,-2.449091E0,3.3508694E-1,-4.301646E0,-6.47087E-1,6.844874E-1,-4.6893543E-1,-7.29257E-2,-1.5646449E-1,-4.0895533E-2,6.566599E-3,-9.177144E-1,9.771373E-1,-2.3324509E0,2.7786788E-1,6.754203E-1,-2.3025634E0,1.1572036E0,-6.4551455E-1,-8.403158E-2,-2.4075659E-2,3.386483E-2,-1.9193713E-1,3.898048E-2,-0E0,-3.5794485E-2,-8.491917E-2,1.2840759E0,1.6152476E-1,-4.3851566E-2,1.1121606E-2,-3.4375794E-2,1.1098438E-2,5.062534E-2,3.035858E-2,-6.8710893E-3,2.651679E-2,-6.711961E-3,4.006416E-3],"categories":[],"categories_nodes":[],"categories_segments":[],"categories_sizes":[],"default_left":[0,0,0,0,0,0,0,0,0,0,0,0,0,0,0,0,0,0,0,0,0,0,0,0,0,0,0,0,0,0,0,0,0,0,0,0,0,0,0],"id":16,"left_children":[1,3,5,7,9,11,13,-1,-1,-1,-1,15,17,19,21,23,25,27,29,-1,-1,-1,31,-1,-1,-1,-1,33,35,-1,-1,-1,37,-1,-1,-1,-1,-1,-1],"loss_changes":[2.1251329E2,9.639293E1,7.00646E1,8.887939E0,1.1772175E1,8.228505E1,1.0640152E2,0E0,0E0,0E0,0E0,6.1824936E1,4.4236877E1,1.1144928E1,2.2644926E1,5.7841587E0,2.6400375E0,1.5504822E1,1.3810633E1,0E0,0E0,0E0,7.7668605E0,0E0,0E0,0E0,0E0,9.239716E0,5.517261E0,0E0,0E0,0E0,7.850909E-1,0E0,0E0,0E0,0E0,0E0,0E0],"parents":[2147483647,0,0,1,1,2,2,3,3,4,4,5,5,6,6,11,11,12,12,13,13,14,14,15,15,16,16,17,17,18,18,22,22,27,27,28,28,32,32],"right_children":[2,4,6,8,10,12,14,-1,-1,-1,-1,16,18,20,22,24,26,28,30,-1,-1,-1,32,-1,-1,-1,-1,34,36,-1,-1,-1,38,-1,-1,-1,-1,-1,-1],"split_conditions":[-3.1484044E-1,-1.7342588E-1,0E0,-4.3725094E-1,-2.5822097E-1,-7.6614255E-3,9.7783965E-1,-7.29257E-2,-1.5646449E-1,-4.0895533E-2,6.566599E-3,-3.1093118E-1,1.8928655E0,-4.4833574E-1,1.4898986E-1,-9.0255773E-1,0E0,1.4764116E0,-5.8346146E-1,-8.403158E-2,-2.4075659E-2,3.386483E-2,-1.9141336E-1,3.898048E-2,-0E0,-3.5794485E-2,-8.491917E-2,-1.3310096E0,1.4568865E0,-4.3851566E-2,1.1121606E-2,-3.4375794E-2,9.804688E-1,5.062534E-2,3.035858E-2,-6.8710893E-3,2.651679E-2,-6.711961E-3,4.006416E-3],"split_indices":[150,129,22,139,4,140,37,0,0,0,0,139,140,129,4,4,43,145,4,0,0,0,147,0,0,0,0,40,91,0,0,0,40,0,0,0,0,0,0],"split_type":[0,0,0,0,0,0,0,0,0,0,0,0,0,0,0,0,0,0,0,0,0,0,0,0,0,0,0,0,0,0,0,0,0,0,0,0,0,0,0],"sum_hessian":[2.77E2,3E1,2.47E2,1.4E1,1.6E1,1.73E2,7.4E1,6E0,8E0,9E0,7E0,2.6E1,1.47E2,2.1E1,5.3E1,1.2E1,1.4E1,1.33E2,1.4E1,1.5E1,6E0,1.9E1,3.4E1,6E0,6E0,6E0,8E0,1.17E2,1.6E1,8E0,6E0,6E0,2.8E1,4.3E1,7.4E1,1E1,6E0,7E0,2.1E1],"tree_param":{"num_deleted":"0","num_feature":"157","num_nodes":"39","size_leaf_vector":"1"}},{"base_weights":[-4.3614037E-2,-1.9458449E0,1.8568046E-1,-3.4201295E0,-2.0719856E-1,-4.079473E-1,6.5085214E-1,-1.3596848E-1,-5.966738E-2,9.773808E-3,-2.980391E-2,-1.6128408E0,3.800172E-1,-4.4507656E-2,7.81311E-1,-1.3153033E-1,-2.5510836E0,7.7030885E-1,-1.1860797E0,1.4582995E0,4.3816477E-1,-2.3587337E-2,8.233885E-3,-8.758831E-2,-2.9984856E-2,-1.116877E-2,9.417012E-1,-5.46201E-2,-8.203158E-3,9.3861467E-1,5.623562E-2,6.7675894E-1,-5.9562013E-2,1.3758505E-2,3.1996157E-2,-0E0,3.9851367E-2,2.4100337E-2,-2.1901902E-2],"categories":[],"categories_nodes":[],"categories_segments":[],"categories_sizes":[],"default_left":[0,0,0,0,0,0,0,0,0,0,0,0,0,0,0,0,0,0,0,0,0,0,0,0,0,0,0,0,0,0,0,0,0,0,0,0,0,0,0],"id":17,"left_children":[1,3,5,7,9,11,13,-1,-1,-1,-1,15,17,-1,19,21,23,25,27,29,31,-1,-1,-1,-1,-1,33,-1,-1,35,-1,37,-1,-1,-1,-1,-1,-1,-1],"loss_changes":[1.2078866E2,7.276604E1,6.7751625E1,1.2496414E1,7.109439E0,1.02965164E2,3.8864925E1,0E0,0E0,0E0,0E0,5.695317E1,4.0013103E1,0E0,2.8253494E1,5.398864E0,9.556503E0,1.1132332E1,5.320444E0,5.6302414E0,5.156149E1,0E0,0E0,0E0,0E0,0E0,1.2258339E0,0E0,0E0,7.1997814E0,0E0,1.5641018E1,0E0,0E0,0E0,0E0,0E0,0E0,0E0],"parents":[2147483647,0,0,1,1,2,2,3,3,4,4,5,5,6,6,11,11,12,12,14,14,15,15,16,16,17,17,18,18,19,19,20,20,26,26,29,29,31,31],"right_children":[2,4,6,8,10,12,14,-1,-1,-1,-1,16,18,-1,20,22,24,26,28,30,32,-1,-1,-1,-1,-1,34,-1,-1,36,-1,38,-1,-1,-1,-1,-1,-1,-1],"split_conditions":[-3.1484044E-1,-8.1752765E-1,-2.72669E-1,-4.3345192E-1,-5.231427E-1,2.7431136E-1,-8.689106E-2,-1.3596848E-1,-5.966738E-2,9.773808E-3,-2.980391E-2,-9.3659323E-1,4.6280783E-1,-4.4507656E-2,-6.450453E-1,0E0,6.285285E-1,1.4285213E-1,-3.4987924E-1,8.669402E-3,2.0596461E0,-2.3587337E-2,8.233885E-3,-8.758831E-2,-2.9984856E-2,-1.116877E-2,-1.412435E0,-5.46201E-2,-8.203158E-3,9.346517E-1,5.623562E-2,-2.9117197E-1,-5.9562013E-2,1.3758505E-2,3.1996157E-2,-0E0,3.9851367E-2,2.4100337E-2,-2.1901902E-2],"split_indices":[150,3,39,153,3,51,88,0,0,0,0,33,51,0,106,19,93,134,123,150,10,0,0,0,0,0,146,0,0,147,0,99,0,0,0,0,0,0,0],"split_type":[0,0,0,0,0,0,0,0,0,0,0,0,0,0,0,0,0,0,0,0,0,0,0,0,0,0,0,0,0,0,0,0,0,0,0,0,0,0,0],"sum_hessian":[2.72E2,2.9E1,2.43E2,1.5E1,1.4E1,1.06E2,1.37E2,7E0,8E0,8E0,6E0,4.2E1,6.4E1,7E0,1.3E2,1.7E1,2.5E1,5.2E1,1.2E1,4.2E1,8.8E1,7E0,1E1,1.9E1,6E0,6E0,4.6E1,6E0,6E0,2.1E1,2.1E1,8.1E1,7E0,1.2E1,3.4E1,7E0,1.4E1,7.5E1,6E0],"tree_param":{"num_deleted":"0","num_feature":"157","num_nodes":"39","size_leaf_vector":"1"}},{"base_weights":[1.3223096E-2,-2.158597E0,2.7603322E-1,-3.6268103E-1,-1.295515E-1,5.791262E-1,-4.996031E-1,1.810879E-2,-3.8350776E-2,8.849317E-1,-4.6396446E-1,-1.7483006E0,2.8736028E-1,-6.0288167E-1,1.1118721E0,-4.9723215E-2,-0E0,-6.7937285E-2,-7.5494917E-3,3.4372658E-2,-2.039238E-1,1.871628E-2,-4.2114776E-2,9.215897E-1,5.093146E-2,-2.506886E-2,3.99769E-1,-2.3131143E-2,-0E0,2.984058E-2,1.1905449E-3,2.208152E-2,-4.8600794E-3,-5.847055E-3,3.6306367E-3],"categories":[],"categories_nodes":[],"categories_segments":[],"categories_sizes":[],"default_left":[0,0,0,0,0,0,0,0,0,0,0,0,0,0,0,0,0,0,0,0,0,0,0,0,0,0,0,0,0,0,0,0,0,0,0],"id":18,"left_children":[1,3,5,7,-1,9,11,-1,-1,13,15,17,19,21,23,-1,25,-1,-1,-1,27,-1,-1,29,-1,-1,31,-1,33,-1,-1,-1,-1,-1,-1],"loss_changes":[1.4204706E2,9.981713E1,5.3156937E1,1.53593855E1,0E0,5.2630383E1,6.338433E1,0E0,0E0,4.3801155E1,1.9328367E1,1.6974945E1,1.748282E1,1.8111546E1,9.017166E0,0E0,9.935021E0,0E0,0E0,0E0,3.0637999E0,0E0,0E0,5.075096E0,0E0,0E0,4.1905594E0,0E0,4.5141518E-1,0E0,0E0,0E0,0E0,0E0,0E0],"parents":[2147483647,0,0,1,1,2,2,3,3,5,5,6,6,9,9,10,10,11,11,12,12,13,13,14,14,16,16,20,20,23,23,26,26,28,28],"right_children":[2,4,6,8,-1,10,12,-1,-1,14,16,18,20,22,24,-1,26,-1,-1,-1,28,-1,-1,30,-1,-1,32,-1,34,-1,-1,-1,-1,-1,-1],"split_conditions":[-3.254817E-1,7.6834923E-1,-4.662585E-1,-7.8907675E-1,-1.295515E-1,-5.645694E-1,1.0708247E0,1.810879E-2,-3.8350776E-2,5.164706E-1,-6.378373E-1,1.5684614E0,1.4898986E-1,-5.37805E-1,4.3095902E-1,-4.9723215E-2,8.879822E-1,-6.7937285E-2,-7.5494917E-3,3.4372658E-2,-4.4913018E-1,1.871628E-2,-4.2114776E-2,2.6056468E-2,5.093146E-2,-2.506886E-2,6.93207E-1,-2.3131143E-2,-4.7295266E-1,2.984058E-2,1.1905449E-3,2.208152E-2,-4.8600794E-3,-5.847055E-3,3.6306367E-3],"split_indices":[150,47,21,155,0,75,37,0,0,138,88,19,4,138,117,0,57,0,0,0,21,0,0,109,0,0,9,0,33,0,0,0,0,0,0],"split_type":[0,0,0,0,0,0,0,0,0,0,0,0,0,0,0,0,0,0,0,0,0,0,0,0,0,0,0,0,0,0,0,0,0,0,0],"sum_hessian":[2.5E2,2.6E1,2.24E2,1.5E1,1.1E1,1.62E2,6.2E1,7E0,8E0,1.26E2,3.6E1,2.4E1,3.8E1,1.6E1,1.1E2,9E0,2.7E1,1.7E1,7E0,1.4E1,2.4E1,6E0,1E1,8.6E1,2.4E1,9E0,1.8E1,6E0,1.8E1,7.8E1,8E0,1.2E1,6E0,6E0,1.2E1],"tree_param":{"num_deleted":"0","num_feature":"157","num_nodes":"35","size_leaf_vector":"1"}},{"base_weights":[-1.896523E-2,-2.1097312E0,1.849892E-1,-0E0,-3.4652102E0,3.4945965E-1,-1.7401596E0,-6.1367735E-2,-1.260161E-1,-1.5578401E0,4.74016E-1,-1.2672036E-2,-7.4032836E-2,5.612769E-3,-9.6742444E-2,5.566168E-1,-5.4263916E-2,-4.031491E-2,6.487697E-1,2.26516E-2,-1.5764505E-2],"categories":[],"categories_nodes":[],"categories_segments":[],"categories_sizes":[],"default_left":[0,0,0,0,0,0,0,0,0,0,0,0,0,0,0,0,0,0,0,0,0],"id":19,"left_children":[1,3,5,-1,7,9,11,-1,-1,13,15,-1,-1,-1,-1,17,-1,-1,19,-1,-1],"loss_changes":[1.09337555E2,6.436236E1,7.208181E1,0E0,2.2959137E0,5.024061E1,1.402364E1,0E0,0E0,4.0777832E1,3.777799E1,0E0,0E0,0E0,0E0,3.436448E1,0E0,0E0,2.47602E1,0E0,0E0],"parents":[2147483647,0,0,1,1,2,2,4,4,5,5,6,6,9,9,10,10,15,15,18,18],"right_children":[2,4,6,-1,8,10,12,-1,-1,14,16,-1,-1,-1,-1,18,-1,-1,20,-1,-1],"split_conditions":[-3.979764E-1,-8.824025E-1,4.094198E-1,-0E0,-2.4641667E-1,-1.5391834E0,8.991558E-1,-6.1367735E-2,-1.260161E-1,-4.144888E-1,0E0,-1.2672036E-2,-7.4032836E-2,5.612769E-3,-9.6742444E-2,-7.1907604E-1,-5.4263916E-2,-4.031491E-2,1.8685387E0,2.26516E-2,-1.5764505E-2],"split_indices":[150,137,88,0,40,146,145,0,0,111,100,0,0,0,0,111,0,0,140,0,0],"split_type":[0,0,0,0,0,0,0,0,0,0,0,0,0,0,0,0,0,0,0,0,0],"sum_hessian":[2.51E2,2.2E1,2.29E2,9E0,1.3E1,2.12E2,1.7E1,6E0,7E0,1.2E1,2E2,7E0,1E1,6E0,6E0,1.94E2,6E0,8E0,1.86E2,1.71E2,1.5E1],"tree_param":{"num_deleted":"0","num_feature":"157","num_nodes":"21","size_leaf_vector":"1"}},{"base_weights":[4.193623E-2,-1.176883E0,4.1654354E-1,-2.1500342E0,-0E0,-7.420185E-1,6.104194E-1,-3.1252198E0,-7.6324075E-1,4.1432112E-1,-4.4272356E-2,3.2927436E-1,-1.9020458E0,7.4122983E-1,-9.528035E-1,-1.31065E-1,-2.2537045E0,1.8633958E-3,-4.5391556E-2,3.8585056E-2,-0E0,3.6025852E-2,-6.5996507E-3,-9.039458E-2,-2.7349638E-3,-3.6207396E-1,8.814434E-1,1.25285685E-2,-7.571949E-2,-3.6441073E-2,-8.385022E-2,-1.2804764E-2,1.9267691E-2,-3.3303633E-2,6.0029547E-3,6.2256736E-1,1.208984E0,-4.8702676E-3,2.2369873E-2,3.9656322E-2,-0E0],"categories":[],"categories_nodes":[],"categories_segments":[],"categories_sizes":[],"default_left":[0,0,0,0,0,0,0,0,0,0,0,0,0,0,0,0,0,0,0,0,0,0,0,0,0,0,0,0,0,0,0,0,0,0,0,0,0,0,0,0,0],"id":20,"left_children":[1,3,5,7,9,11,13,15,17,19,-1,21,23,25,27,-1,29,-1,-1,-1,31,-1,-1,-1,-1,33,35,-1,-1,-1,-1,-1,-1,-1,-1,37,39,-1,-1,-1,-1],"loss_changes":[1.2431726E2,7.256099E1,4.738749E1,4.1827393E1,1.9093037E1,3.89067E1,3.737271E1,8.120102E0,1.12148075E1,8.979812E0,0E0,8.700359E0,2.7347252E1,2.6664223E1,3.2723225E1,0E0,1.6956635E0,0E0,0E0,0E0,4.833402E0,0E0,0E0,0E0,0E0,8.951694E0,1.0529243E1,0E0,0E0,0E0,0E0,0E0,0E0,0E0,0E0,9.26152E0,8.806236E0,0E0,0E0,0E0,0E0],"parents":[2147483647,0,0,1,1,2,2,3,3,4,4,5,5,6,6,7,7,8,8,9,9,11,11,12,12,13,13,14,14,16,16,20,20,25,25,26,26,35,35,36,36],"right_children":[2,4,6,8,10,12,14,16,18,20,-1,22,24,26,28,-1,30,-1,-1,-1,32,-1,-1,-1,-1,34,36,-1,-1,-1,-1,-1,-1,-1,-1,38,40,-1,-1,-1,-1],"split_conditions":[1.9249608E-1,3.7446797E-1,-6.148266E-1,-2.505463E-1,-8.1729805E-1,-9.426202E-1,3.2738782E-2,-9.3370616E-1,-6.806688E-1,-5.2570677E-1,-4.4272356E-2,4.445955E-1,6.0938716E-1,2.0258169E-1,-4.5891455E-1,-1.31065E-1,-1.7005064E-1,1.8633958E-3,-4.5391556E-2,3.8585056E-2,3.293302E-1,3.6025852E-2,-6.5996507E-3,-9.039458E-2,-2.7349638E-3,4.822779E-1,1.8695801E0,1.25285685E-2,-7.571949E-2,-3.6441073E-2,-8.385022E-2,-1.2804764E-2,1.9267691E-2,-3.3303633E-2,6.0029547E-3,-5.5788046E-1,2.0749214E0,-4.8702676E-3,2.2369873E-2,3.9656322E-2,-0E0],"split_indices":[144,140,152,129,64,33,112,4,154,22,0,138,106,46,152,0,140,0,0,0,93,0,0,0,0,138,10,0,0,0,0,0,0,0,0,51,138,0,0,0,0],"split_type":[0,0,0,0,0,0,0,0,0,0,0,0,0,0,0,0,0,0,0,0,0,0,0,0,0,0,0,0,0,0,0,0,0,0,0,0,0,0,0,0,0],"sum_hessian":[2.72E2,6.3E1,2.09E2,3.4E1,2.9E1,2.9E1,1.8E2,1.9E1,1.5E1,2.3E1,6E0,1.5E1,1.4E1,1.67E2,1.3E1,6E0,1.3E1,7E0,8E0,7E0,1.6E1,6E0,9E0,8E0,6E0,1.8E1,1.49E2,7E0,6E0,6E0,7E0,1E1,6E0,8E0,1E1,8.6E1,6.3E1,1.1E1,7.5E1,5.7E1,6E0],"tree_param":{"num_deleted":"0","num_feature":"157","num_nodes":"41","size_leaf_vector":"1"}},{"base_weights":[-3.5045195E-2,-1.6232415E0,4.627425E-1,-1.5358856E-1,-1.1176187E0,9.670379E-1,-0E0,-1.6915656E0,1.08519234E-1,-2.188272E-3,1.1299902E0,-9.7300345E-1,5.741429E-1,-2.4662344E0,-0E0,2.7609132E-2,-1.0018818E-2,1.4504519E0,7.351942E-1,3.483543E-2,-1.4642252E0,8.1512856E-1,-0E0,-8.7089255E-2,-4.315523E-2,2.764152E-2,4.9082052E-2,-0E0,2.6965106E-2,-4.1492376E-1,-2.104088E0,9.535683E-1,-0E0,-1.0153478E-2,1.1694759E-2,-2.8382922E-2,1.378778E-3,-3.3977356E-2,-8.08581E-2,3.226661E-2,7.2220447E-3],"categories":[],"categories_nodes":[],"categories_segments":[],"categories_sizes":[],"default_left":[0,0,0,0,0,0,0,0,0,0,0,0,0,0,0,0,0,0,0,0,0,0,0,0,0,0,0,0,0,0,0,0,0,0,0,0,0,0,0,0,0],"id":21,"left_children":[1,3,5,-1,7,9,11,13,15,-1,17,19,21,23,-1,-1,-1,25,27,-1,29,31,33,-1,-1,-1,-1,-1,-1,35,37,39,-1,-1,-1,-1,-1,-1,-1,-1,-1],"loss_changes":[1.9119868E2,9.2958466E1,4.204221E1,0E0,3.7963593E1,1.5685059E1,5.428826E1,4.8462425E1,6.856339E0,0E0,6.860138E0,3.9308186E1,8.736614E0,4.275711E0,0E0,0E0,0E0,6.1919403E-1,4.4416466E0,0E0,1.716269E1,5.2735023E0,2.6062474E0,0E0,0E0,0E0,0E0,0E0,0E0,3.9746156E0,4.6155167E0,2.0937958E0,0E0,0E0,0E0,0E0,0E0,0E0,0E0,0E0,0E0],"parents":[2147483647,0,0,1,1,2,2,4,4,5,5,6,6,7,7,8,8,10,10,11,11,12,12,13,13,17,17,18,18,20,20,21,21,22,22,29,29,30,30,31,31],"right_children":[2,4,6,-1,8,10,12,14,16,-1,18,20,22,24,-1,-1,-1,26,28,-1,30,32,34,-1,-1,-1,-1,-1,-1,36,38,40,-1,-1,-1,-1,-1,-1,-1,-1,-1],"split_conditions":[-1.3917002E-1,-1.0105424E0,-6.463629E-1,-1.5358856E-1,-3.5245788E-1,5.164706E-1,6.6560256E-1,3.188754E-1,-6.463629E-1,-2.188272E-3,-6.450453E-1,-8.954878E-1,7.44718E-1,-6.3801765E-1,-0E0,2.7609132E-2,-1.0018818E-2,-1.4530859E0,-9.1121507E-1,3.483543E-2,7.7949864E-1,1.3003514E0,1.9805561E0,-8.7089255E-2,-4.315523E-2,2.764152E-2,4.9082052E-2,-0E0,2.6965106E-2,1.9502184E0,-5.6090546E-1,-2.506115E-1,-0E0,-1.0153478E-2,1.1694759E-2,-2.8382922E-2,1.378778E-3,-3.3977356E-2,-8.08581E-2,3.226661E-2,7.2220447E-3],"split_indices":[144,21,126,0,111,138,103,51,126,0,106,138,4,75,0,0,0,9,156,0,145,82,138,0,0,0,0,0,0,138,112,9,0,0,0,0,0,0,0,0,0],"split_type":[0,0,0,0,0,0,0,0,0,0,0,0,0,0,0,0,0,0,0,0,0,0,0,0,0,0,0,0,0,0,0,0,0,0,0,0,0,0,0,0,0],"sum_hessian":[2.39E2,5.7E1,1.82E2,6E0,5.1E1,8.6E1,9.6E1,3.5E1,1.6E1,1.1E1,7.5E1,3.5E1,6.1E1,2.4E1,1.1E1,6E0,1E1,3.9E1,3.6E1,6E0,2.9E1,4.3E1,1.8E1,1.5E1,9E0,1.3E1,2.6E1,7E0,2.9E1,1.2E1,1.7E1,3.7E1,6E0,1E1,8E0,6E0,6E0,8E0,9E0,3E1,7E0],"tree_param":{"num_deleted":"0","num_feature":"157","num_nodes":"41","size_leaf_vector":"1"}},{"base_weights":[-1.221927E-1,-1.3244356E0,3.1547317E-1,-2.1343157E0,-4.1247234E-1,4.264064E-1,-4.0022157E-2,-6.1390364E-1,-2.9073422E0,-1.4851122E0,4.1777393E-1,-1.0580443E0,5.414118E-1,1.0916591E-3,-4.2107176E-2,-3.3644905E0,-3.697611E-2,-5.7025358E-2,-1.6986437E-2,3.1956885E-2,-3.8150342E-3,-0E0,-5.7399753E-2,1.260071E0,3.5431924E-1,-1.2056243E-1,-6.577742E-2,4.219283E-2,1.0654802E-2,-4.1364625E-1,4.8066908E-1,-3.089785E-2,4.650563E-3,4.8206616E-2,1.1969701E-2],"categories":[],"categories_nodes":[],"categories_segments":[],"categories_sizes":[],"default_left":[0,0,0,0,0,0,0,0,0,0,0,0,0,0,0,0,0,0,0,0,0,0,0,0,0,0,0,0,0,0,0,0,0,0,0],"id":22,"left_children":[1,3,5,7,9,11,-1,13,15,17,19,21,23,-1,-1,25,-1,-1,-1,-1,-1,-1,-1,27,29,-1,-1,-1,-1,31,33,-1,-1,-1,-1],"loss_changes":[1.3949025E2,4.941784E1,3.512227E1,3.881682E1,3.242343E1,3.1069191E1,0E0,8.375275E0,1.0838409E1,3.1671753E0,7.975252E0,1.087199E1,2.1094181E1,0E0,0E0,1.3638153E0,0E0,0E0,0E0,0E0,0E0,0E0,0E0,2.7740898E0,1.3495522E1,0E0,0E0,0E0,0E0,7.5422287E0,8.485119E0,0E0,0E0,0E0,0E0],"parents":[2147483647,0,0,1,1,2,2,3,3,4,4,5,5,7,7,8,8,9,9,10,10,11,11,12,12,15,15,23,23,24,24,29,29,30,30],"right_children":[2,4,6,8,10,12,-1,14,16,18,20,22,24,-1,-1,26,-1,-1,-1,-1,-1,-1,-1,28,30,-1,-1,-1,-1,32,34,-1,-1,-1,-1],"split_conditions":[1.9249608E-1,-2.5551778E-1,3.2738782E-2,-8.2151127E-1,0E0,-3.2043064E-1,-4.0022157E-2,4.4697E-1,8.8956344E-1,7.4039084E-1,-2.7429324E-1,3.239705E-1,7.944086E-1,1.0916591E-3,-4.2107176E-2,2.2129612E-1,-3.697611E-2,-5.7025358E-2,-1.6986437E-2,3.1956885E-2,-3.8150342E-3,-0E0,-5.7399753E-2,1.124833E0,-6.4374053E-1,-1.2056243E-1,-6.577742E-2,4.219283E-2,1.0654802E-2,2.7983683E-1,-1.1257808E0,-3.089785E-2,4.650563E-3,4.8206616E-2,1.1969701E-2],"split_indices":[144,129,112,39,132,28,0,51,34,128,144,46,144,0,0,45,0,0,0,0,0,0,0,138,152,0,0,0,0,88,155,0,0,0,0],"split_type":[0,0,0,0,0,0,0,0,0,0,0,0,0,0,0,0,0,0,0,0,0,0,0,0,0,0,0,0,0,0,0,0,0,0,0],"sum_hessian":[2.62E2,7E1,1.92E2,3.6E1,3.4E1,1.81E2,1.1E1,1.3E1,2.3E1,1.5E1,1.9E1,1.2E1,1.69E2,7E0,6E0,1.7E1,6E0,9E0,6E0,9E0,1E1,6E0,6E0,3.3E1,1.36E2,9E0,8E0,2.7E1,6E0,1.8E1,1.18E2,9E0,9E0,6E0,1.12E2],"tree_param":{"num_deleted":"0","num_feature":"157","num_nodes":"35","size_leaf_vector":"1"}},{"base_weights":[-1.6493859E-2,-1.0176603E0,3.9168572E-1,1.6243787E-2,-1.7586092E0,-8.15238E-1,5.5175954E-1,4.0088835E-1,-4.100134E-2,-2.3090231E0,-0E0,-1.5411493E0,2.5126526E-2,6.274189E-1,-2.8454823E-2,-1.9469937E-2,9.2223257E-1,-2.7358117E0,-2.0900598E-2,-1.4352179E-2,-7.362255E-2,7.538497E-1,-3.7411729E-1,3.4831885E-2,1.034741E-2,-9.40706E-2,-4.4683866E-2,8.412197E-1,-2.9183377E-2,-4.5027543E-2,1.1804142E-2,2.7864372E-2,-0E0],"categories":[],"categories_nodes":[],"categories_segments":[],"categories_sizes":[],"default_left":[0,0,0,0,0,0,0,0,0,0,0,0,0,0,0,0,0,0,0,0,0,0,0,0,0,0,0,0,0,0,0,0,0],"id":23,"left_children":[1,3,5,7,9,11,13,15,-1,17,-1,19,-1,21,-1,-1,23,25,-1,-1,-1,27,29,-1,-1,-1,-1,31,-1,-1,-1,-1,-1],"loss_changes":[1.0948693E2,6.112007E1,3.6623024E1,1.7170437E1,4.393431E1,2.7902985E1,1.9323696E1,1.54482975E1,0E0,1.9414139E1,0E0,1.2047016E1,0E0,2.0917484E1,0E0,0E0,1.0330772E0,6.0081635E0,0E0,0E0,0E0,2.2316437E1,1.699538E1,0E0,0E0,0E0,0E0,1.0406784E1,0E0,0E0,0E0,0E0,0E0],"parents":[2147483647,0,0,1,1,2,2,3,3,4,4,5,5,6,6,7,7,9,9,11,11,13,13,16,16,17,17,21,21,22,22,27,27],"right_children":[2,4,6,8,10,12,14,16,-1,18,-1,20,-1,22,-1,-1,24,26,-1,-1,-1,28,30,-1,-1,-1,-1,32,-1,-1,-1,-1,-1],"split_conditions":[1.9249608E-1,4.63167E-1,-6.319705E-1,4.6280783E-1,1.0708247E0,-8.602522E-2,1.7698401E-1,-1.4994531E0,-4.100134E-2,-1.2862413E-1,-0E0,-7.042671E-1,2.5126526E-2,-6.4830575E-3,-2.8454823E-2,-1.9469937E-2,-4.1718242E-1,-1.1892132E-1,-2.0900598E-2,-1.4352179E-2,-7.362255E-2,8.7499034E-1,1.9010085E0,3.4831885E-2,1.034741E-2,-9.40706E-2,-4.4683866E-2,1.0956516E0,-2.9183377E-2,-4.5027543E-2,1.1804142E-2,2.7864372E-2,-0E0],"split_indices":[144,46,152,51,37,136,18,1,0,129,0,152,0,112,0,0,112,133,0,0,0,27,139,0,0,0,0,130,0,0,0,0,0],"split_type":[0,0,0,0,0,0,0,0,0,0,0,0,0,0,0,0,0,0,0,0,0,0,0,0,0,0,0,0,0,0,0,0,0],"sum_hessian":[2.65E2,7.7E1,1.88E2,3.2E1,4.5E1,2.1E1,1.67E2,2.6E1,6E0,3.4E1,1.1E1,1.5E1,6E0,1.6E2,7E0,8E0,1.8E1,2.6E1,8E0,8E0,7E0,1.43E2,1.7E1,1.1E1,7E0,1.8E1,8E0,1.37E2,6E0,7E0,1E1,1.23E2,1.4E1],"tree_param":{"num_deleted":"0","num_feature":"157","num_nodes":"33","size_leaf_vector":"1"}},{"base_weights":[-1.02557115E-1,-1.5726923E0,3.6276814E-1,-3.8408923E0,-9.006413E-1,-8.403966E-1,5.883636E-1,-1.5295036E-1,-5.3205952E-2,-7.4476423E-3,-2.456642E0,-0E0,-1.5553299E0,-2.5350455E-2,6.899062E-1,3.302302E-2,-3.7749323E-1,-2.7958632E-2,-9.226039E-2,-1.3229763E-2,1.1103826E-2,-9.528252E-3,-8.46381E-2,5.0837916E-1,1.2677659E0,-3.7102405E-2,2.0532005E-2,-2.7206846E-2,5.957299E-1,7.454075E-3,1.4372195E0,1.8524535E-2,-1.6507642E-2,2.0622395E-2,-0E0,1.4706936E-2,4.8421837E-2],"categories":[],"categories_nodes":[],"categories_segments":[],"categories_sizes":[],"default_left":[0,0,0,0,0,0,0,0,0,0,0,0,0,0,0,0,0,0,0,0,0,0,0,0,0,0,0,0,0,0,0,0,0,0,0,0,0],"id":24,"left_children":[1,3,5,7,9,11,13,-1,-1,15,17,19,21,-1,23,-1,25,-1,-1,-1,-1,-1,-1,27,29,-1,31,-1,33,-1,35,-1,-1,-1,-1,-1,-1],"loss_changes":[1.7855154E2,8.889198E1,5.361229E1,2.316388E1,6.7126564E1,1.8918415E1,2.4698719E1,0E0,0E0,1.324973E1,1.1392181E1,2.5605392E0,2.3197445E1,0E0,1.441124E1,0E0,9.957384E0,0E0,0E0,0E0,0E0,0E0,0E0,1.5285778E1,4.4497643E0,0E0,6.4731545E0,0E0,6.557781E0,0E0,2.7631836E0,0E0,0E0,0E0,0E0,0E0,0E0],"parents":[2147483647,0,0,1,1,2,2,3,3,4,4,5,5,6,6,9,9,10,10,11,11,12,12,14,14,16,16,23,23,24,24,26,26,28,28,30,30],"right_children":[2,4,6,8,10,12,14,-1,-1,16,18,20,22,-1,24,-1,26,-1,-1,-1,-1,-1,-1,28,30,-1,32,-1,34,-1,36,-1,-1,-1,-1,-1,-1],"split_conditions":[1.9249608E-1,-9.502146E-1,-5.8381474E-1,-5.5025923E-1,-5.0218993E-1,-6.463629E-1,-6.9548804E-1,-1.5295036E-1,-5.3205952E-2,-1.5096005E0,-6.266139E-1,1.538365E0,-5.3572977E-1,-2.5350455E-2,2.4736926E-1,3.302302E-2,-1.1372191E0,-2.7958632E-2,-9.226039E-2,-1.3229763E-2,1.1103826E-2,-9.528252E-3,-8.46381E-2,-8.5423E-1,-8.519724E-2,-3.7102405E-2,1.3957329E0,-2.7206846E-2,1.6434575E0,7.454075E-3,-1.2007709E0,1.8524535E-2,-1.6507642E-2,2.0622395E-2,-0E0,1.4706936E-2,4.8421837E-2],"split_indices":[144,34,152,23,154,126,153,0,0,22,51,86,117,0,152,0,19,0,0,0,0,0,0,154,102,0,145,0,145,0,9,0,0,0,0,0,0],"split_type":[0,0,0,0,0,0,0,0,0,0,0,0,0,0,0,0,0,0,0,0,0,0,0,0,0,0,0,0,0,0,0,0,0,0,0,0,0],"sum_hessian":[2.58E2,6.2E1,1.96E2,1.3E1,4.9E1,3E1,1.66E2,7E0,6E0,3.2E1,1.7E1,1.4E1,1.6E1,1E1,1.56E2,7E0,2.5E1,6E0,1.1E1,6E0,8E0,9E0,7E0,1.21E2,3.5E1,8E0,1.7E1,6E0,1.15E2,6E0,2.9E1,9E0,8E0,9.9E1,1.6E1,6E0,2.3E1],"tree_param":{"num_deleted":"0","num_feature":"157","num_nodes":"37","size_leaf_vector":"1"}},{"base_weights":[-1.4775735E-1,-1.5993857E0,3.6923563E-1,-3.731451E0,-1.0803792E0,-1.0112544E0,5.861817E-1,-1.3929324E-1,-6.634302E-2,-3.6256292E-1,-1.6918676E0,-0E0,-2.0750203E0,-1.9843295E-1,8.2549965E-1,-4.4149954E-2,1.06395565E-1,-1.0873027E-2,-2.0487683E0,-2.0421674E-2,1.9677708E-2,-2.3495885E-2,-8.920311E-2,6.7442894E-1,-1.1060315E0,1.2066064E0,5.166461E-1,3.3841245E-2,-3.4534323E-1,-7.213435E-2,-2.9261108E-2,3.318777E-2,-1.4302583E-4,-5.3377442E-2,-0E0,3.84916E-2,1.6334845E-2,6.223093E-1,-9.897779E-3,-2.2488637E-2,1.175115E-3,-5.848682E-4,2.1246724E-2],"categories":[],"categories_nodes":[],"categories_segments":[],"categories_sizes":[],"default_left":[0,0,0,0,0,0,0,0,0,0,0,0,0,0,0,0,0,0,0,0,0,0,0,0,0,0,0,0,0,0,0,0,0,0,0,0,0,0,0,0,0,0,0],"id":25,"left_children":[1,3,5,7,9,11,13,-1,-1,15,17,19,21,23,25,-1,27,-1,29,-1,-1,-1,-1,31,33,35,37,-1,39,-1,-1,-1,-1,-1,-1,-1,-1,41,-1,-1,-1,-1,-1],"loss_changes":[1.9651875E2,6.875844E1,5.757144E1,3.7436981E0,2.2689758E1,2.8789198E1,3.1991432E1,0E0,0E0,1.5865953E1,1.1464081E1,6.5914135E0,9.94738E0,3.1729805E1,1.3186432E1,0E0,1.0190521E1,0E0,4.1470184E0,0E0,0E0,0E0,0E0,6.83692E0,1.3560848E1,9.187622E-1,7.0327644E0,0E0,2.801868E0,0E0,0E0,0E0,0E0,0E0,0E0,0E0,0E0,4.443823E0,0E0,0E0,0E0,0E0,0E0],"parents":[2147483647,0,0,1,1,2,2,3,3,4,4,5,5,6,6,9,9,10,10,11,11,12,12,13,13,14,14,16,16,18,18,23,23,24,24,25,25,26,26,28,28,37,37],"right_children":[2,4,6,8,10,12,14,-1,-1,16,18,20,22,24,26,-1,28,-1,30,-1,-1,-1,-1,32,34,36,38,-1,40,-1,-1,-1,-1,-1,-1,-1,-1,42,-1,-1,-1,-1,-1],"split_conditions":[1.9249608E-1,-3.839533E-1,-6.0821646E-1,-6.2401474E-1,-6.416184E-1,-3.1937262E-1,3.9551854E-1,-1.3929324E-1,-6.634302E-2,0E0,3.6165148E-1,-9.749139E-1,2.5226746E-2,-4.6355566E-1,-2.3133177E-1,-4.4149954E-2,-8.4218025E-1,-1.0873027E-2,1.7961416E-1,-2.0421674E-2,1.9677708E-2,-2.3495885E-2,-8.920311E-2,-1.400198E-1,4.268337E-1,1.1013405E0,-4.6322247E-1,3.3841245E-2,-7.578954E-1,-7.213435E-2,-2.9261108E-2,3.318777E-2,-1.4302583E-4,-5.3377442E-2,-0E0,3.84916E-2,1.6334845E-2,-7.217211E-1,-9.897779E-3,-2.2488637E-2,1.175115E-3,-5.848682E-4,2.1246724E-2],"split_indices":[144,148,152,111,156,105,139,0,0,89,145,34,51,139,40,0,22,0,133,0,0,0,0,9,7,138,33,0,21,0,0,0,0,0,0,0,0,51,0,0,0,0,0],"split_type":[0,0,0,0,0,0,0,0,0,0,0,0,0,0,0,0,0,0,0,0,0,0,0,0,0,0,0,0,0,0,0,0,0,0,0,0,0,0,0,0,0,0,0],"sum_hessian":[2.59E2,6.8E1,1.91E2,1.2E1,5.6E1,2.5E1,1.66E2,6E0,6E0,2.7E1,2.9E1,1.3E1,1.2E1,3.8E1,1.28E2,8E0,1.9E1,7E0,2.2E1,6E0,7E0,6E0,6E0,1.9E1,1.9E1,5.5E1,7.3E1,6E0,1.3E1,1.5E1,7E0,1.2E1,7E0,1.1E1,8E0,4.7E1,8E0,6.6E1,7E0,7E0,6E0,7E0,5.9E1],"tree_param":{"num_deleted":"0","num_feature":"157","num_nodes":"43","size_leaf_vector":"1"}},{"base_weights":[-9.255602E-2,-1.4513313E0,4.0952224E-1,-2.206499E0,-4.7297654E-1,7.387285E-1,-1.5412967E-1,-3.1848283E0,-8.04558E-1,-9.158815E-1,1.2867932E-1,1.3244433E0,4.2157567E-1,-1.0068579E0,5.892444E-1,-4.555047E-2,-3.9385402E0,-3.390537E-2,-2.5653266E-4,-1.2982453E0,-0E0,-1.634133E-2,2.428647E-2,1.197573E-2,4.3159887E-2,-3.7817204E-1,7.351036E-1,-1.9107955E0,-1.5803097E-1,2.341486E-2,-0E0,-1.60917E-1,-7.021971E-2,-5.6520406E-2,-1.5940731E-2,-1.0230615E0,2.5587177E-2,2.8945945E-2,5.192894E-1,-2.51476E-2,-8.376643E-2,-1.4988474E-2,8.057146E-3,-1.1802147E-3,-5.0843723E-2,3.7622321E-3,1.972242E-2],"categories":[],"categories_nodes":[],"categories_segments":[],"categories_sizes":[],"default_left":[0,0,0,0,0,0,0,0,0,0,0,0,0,0,0,0,0,0,0,0,0,0,0,0,0,0,0,0,0,0,0,0,0,0,0,0,0,0,0,0,0,0,0,0,0,0,0],"id":26,"left_children":[1,3,5,7,9,11,13,15,17,19,21,23,25,27,29,-1,31,-1,-1,33,-1,-1,-1,-1,-1,35,37,39,41,-1,-1,-1,-1,-1,-1,43,-1,-1,45,-1,-1,-1,-1,-1,-1,-1,-1],"loss_changes":[1.8135263E2,4.9927246E1,3.6369488E1,4.9122192E1,9.511501E0,2.0872444E1,4.5732246E1,1.8956116E1,3.7198877E0,6.665575E0,6.9928646E0,2.652443E0,2.1046555E1,2.3941063E1,3.9924927E0,0E0,1.717839E1,0E0,0E0,3.3952599E0,0E0,0E0,0E0,0E0,0E0,1.9039856E1,1.3519363E0,1.0098789E1,3.080756E0,0E0,0E0,0E0,0E0,0E0,0E0,9.049725E0,0E0,0E0,1.2004004E0,0E0,0E0,0E0,0E0,0E0,0E0,0E0,0E0],"parents":[2147483647,0,0,1,1,2,2,3,3,4,4,5,5,6,6,7,7,8,8,9,9,10,10,11,11,12,12,13,13,14,14,16,16,19,19,25,25,26,26,27,27,28,28,35,35,38,38],"right_children":[2,4,6,8,10,12,14,16,18,20,22,24,26,28,30,-1,32,-1,-1,34,-1,-1,-1,-1,-1,36,38,40,42,-1,-1,-1,-1,-1,-1,44,-1,-1,46,-1,-1,-1,-1,-1,-1,-1,-1],"split_conditions":[1.9249608E-1,-3.4839797E-1,8.312046E-1,-1.1892132E-1,-1.1842657E-1,-6.518133E-1,1.9042983E0,-1.224956E0,1.7322096E-1,2.5697434E-1,-3.1859434E-1,-1.5236902E0,3.401838E-1,-4.0620515E-1,-1.11519486E-1,-4.555047E-2,-6.7536E-1,-3.390537E-2,-2.5653266E-4,-2.5551778E-1,-0E0,-1.634133E-2,2.428647E-2,1.197573E-2,4.3159887E-2,2.4736926E-1,-5.431254E-1,1.5360767E-1,1.1111586E0,2.341486E-2,-0E0,-1.60917E-1,-7.021971E-2,-5.6520406E-2,-1.5940731E-2,-8.2898587E-1,2.5587177E-2,2.8945945E-2,-8.8693154E-1,-2.51476E-2,-8.376643E-2,-1.4988474E-2,8.057146E-3,-1.1802147E-3,-5.0843723E-2,3.7622321E-3,1.972242E-2],"split_indices":[144,39,130,133,150,105,139,1,73,19,87,22,51,133,150,0,75,0,0,129,0,0,0,0,0,152,152,57,130,0,0,0,0,0,0,3,0,0,39,0,0,0,0,0,0,0,0],"split_type":[0,0,0,0,0,0,0,0,0,0,0,0,0,0,0,0,0,0,0,0,0,0,0,0,0,0,0,0,0,0,0,0,0,0,0,0,0,0,0,0,0,0,0,0,0,0,0],"sum_hessian":[2.63E2,7.1E1,1.92E2,3.9E1,3.2E1,1.22E2,7E1,2.2E1,1.7E1,1.9E1,1.3E1,4.1E1,8.1E1,3.3E1,3.7E1,8E0,1.4E1,1.1E1,6E0,1.3E1,6E0,6E0,7E0,6E0,3.5E1,2.2E1,5.9E1,1.5E1,1.8E1,2.7E1,1E1,6E0,8E0,6E0,7E0,1.5E1,7E0,2.5E1,3.4E1,8E0,7E0,1.1E1,7E0,7E0,8E0,1.1E1,2.3E1],"tree_param":{"num_deleted":"0","num_feature":"157","num_nodes":"47","size_leaf_vector":"1"}},{"base_weights":[3.0802596E-2,-1.0039197E0,4.4731498E-1,-1.1340427E-1,-6.21351E-1,-9.970864E-2,7.393545E-1,-1.0118394E0,7.002112E-2,4.732215E-1,-1.0004085E0,1.2291759E0,4.5670208E-1,-1.5494249E0,-7.833233E-2,7.7357674E-1,-2.4481984E-2,-2.8093144E-1,2.5800437E-2,-4.073988E-1,-6.834584E-2,4.106385E-2,8.410696E-3,-3.1964654E-1,6.448165E-1,-7.540052E-1,-6.7122415E-2,1.582931E-2,-2.1045854E-2,3.871451E-2,-0E0,-2.5041576E-2,3.7723961E-3,5.645363E-3,-2.6749715E-2,-3.1980682E-2,8.362378E-3,2.0969747E-1,9.075862E-1,-5.2012805E-2,-0E0,1.4819667E-2,-4.2099925E-3,2.9328968E-2,8.659347E-3],"categories":[],"categories_nodes":[],"categories_segments":[],"categories_sizes":[],"default_left":[0,0,0,0,0,0,0,0,0,0,0,0,0,0,0,0,0,0,0,0,0,0,0,0,0,0,0,0,0,0,0,0,0,0,0,0,0,0,0,0,0,0,0,0,0],"id":27,"left_children":[1,3,5,-1,7,9,11,13,15,17,19,21,23,25,27,29,-1,31,-1,33,-1,-1,-1,35,37,39,-1,-1,-1,-1,-1,-1,-1,-1,-1,-1,-1,41,43,-1,-1,-1,-1,-1,-1],"loss_changes":[1.1574779E2,7.647405E1,3.1407745E1,0E0,1.9438354E1,3.531673E1,1.5664169E1,2.100739E1,1.6025839E1,1.2740032E1,1.7451744E1,4.5034027E0,1.2540302E1,1.1538704E1,7.253953E0,5.9715195E0,0E0,3.8347158E0,0E0,6.5206356E0,0E0,0E0,0E0,8.053784E0,6.6477566E0,1.2285062E1,0E0,0E0,0E0,0E0,0E0,0E0,0E0,0E0,0E0,0E0,0E0,3.1589215E0,5.775223E-1,0E0,0E0,0E0,0E0,0E0,0E0],"parents":[2147483647,0,0,1,1,2,2,4,4,5,5,6,6,7,7,8,8,9,9,10,10,11,11,12,12,13,13,14,14,15,15,17,17,19,19,23,23,24,24,25,25,37,37,38,38],"right_children":[2,4,6,-1,8,10,12,14,16,18,20,22,24,26,28,30,-1,32,-1,34,-1,-1,-1,36,38,40,-1,-1,-1,-1,-1,-1,-1,-1,-1,-1,-1,42,44,-1,-1,-1,-1,-1,-1],"split_conditions":[6.5928537E-1,-5.7580614E-1,-3.6869538E-1,-1.1340427E-1,-9.921005E-2,-8.1413746E-1,-6.450453E-1,1.4004925E-1,1.0406082E-1,1.5553156E0,1.0509549E0,1.8016908E0,-2.0596054E-1,-3.7349212E-1,7.424332E-1,9.715136E-1,-2.4481984E-2,-1.0621116E0,2.5800437E-2,8.013564E-1,-6.834584E-2,4.106385E-2,8.410696E-3,1.9088864E-1,1.3915775E0,-1.2707056E0,-6.7122415E-2,1.582931E-2,-2.1045854E-2,3.871451E-2,-0E0,-2.5041576E-2,3.7723961E-3,5.645363E-3,-2.6749715E-2,-3.1980682E-2,8.362378E-3,1.7402712E0,3.5487983E-1,-5.2012805E-2,-0E0,1.4819667E-2,-4.2099925E-3,2.9328968E-2,8.659347E-3],"split_indices":[144,148,39,0,39,4,106,133,39,132,148,144,148,135,135,58,0,3,0,145,0,0,0,39,94,1,0,0,0,0,0,0,0,0,0,0,0,144,57,0,0,0,0,0,0],"split_type":[0,0,0,0,0,0,0,0,0,0,0,0,0,0,0,0,0,0,0,0,0,0,0,0,0,0,0,0,0,0,0,0,0,0,0,0,0,0,0,0,0,0,0,0,0],"sum_hessian":[2.68E2,7.6E1,1.92E2,8E0,6.8E1,6.6E1,1.26E2,4.4E1,2.4E1,4E1,2.6E1,4.4E1,8.2E1,2.7E1,1.7E1,1.4E1,1E1,1.3E1,2.7E1,1.9E1,7E0,3.7E1,7E0,1.5E1,6.7E1,1.4E1,1.3E1,8E0,9E0,8E0,6E0,6E0,7E0,8E0,1.1E1,7E0,8E0,2.7E1,4E1,6E0,8E0,1.6E1,1.1E1,3.4E1,6E0],"tree_param":{"num_deleted":"0","num_feature":"157","num_nodes":"45","size_leaf_vector":"1"}},{"base_weights":[-7.165172E-2,-2.2177062E0,1.4609687E-1,-1.0125531E0,-1.5906152E-1,-3.1420892E-1,5.1945186E-1,-8.666628E-2,-0E0,-1.1752987E0,2.892871E-1,6.493747E-1,-4.1174135E-1,1.0974641E-2,-1.0590623E-2,-4.5781066E-3,-1.648679E0,6.49586E-1,-9.2920583E-1,1.2211163E0,3.6467227E-1,4.3646214E-3,-3.0680075E-2,-1.5175172E-2,8.62441E-3,-6.6483265E-1,-7.466226E-2,-4.937234E-4,7.729116E-1,-0E0,-4.399218E-2,9.733673E-3,4.019592E-2,-3.03149E-1,6.0164374E-1,-3.500706E-2,-0E0,5.6419745E-3,2.5498882E-2,2.9598577E-3,-3.9541803E-2,2.5428904E-2,1.4523137E-3],"categories":[],"categories_nodes":[],"categories_segments":[],"categories_sizes":[],"default_left":[0,0,0,0,0,0,0,0,0,0,0,0,0,0,0,0,0,0,0,0,0,0,0,0,0,0,0,0,0,0,0,0,0,0,0,0,0,0,0,0,0,0,0],"id":28,"left_children":[1,3,5,7,-1,9,11,-1,13,15,17,19,21,-1,-1,23,25,27,29,31,33,-1,-1,-1,-1,35,-1,-1,37,-1,-1,-1,-1,39,41,-1,-1,-1,-1,-1,-1,-1,-1],"loss_changes":[1.3091765E2,8.7017586E1,4.341318E1,3.717891E1,0E0,5.914003E1,1.7336647E1,0E0,1.9065373E0,2.4533752E1,2.91517E1,1.8441086E1,6.6564627E0,0E0,0E0,2.498963E0,2.3487968E1,4.9109E0,6.3662176E0,2.6978302E0,1.3826099E1,0E0,0E0,0E0,0E0,4.69936E0,0E0,0E0,1.1123028E0,0E0,0E0,0E0,0E0,1.0119685E1,8.036657E0,0E0,0E0,0E0,0E0,0E0,0E0,0E0,0E0],"parents":[2147483647,0,0,1,1,2,2,3,3,5,5,6,6,8,8,9,9,10,10,11,11,12,12,15,15,16,16,17,17,18,18,19,19,20,20,25,25,28,28,33,33,34,34],"right_children":[2,4,6,8,-1,10,12,-1,14,16,18,20,22,-1,-1,24,26,28,30,32,34,-1,-1,-1,-1,36,-1,-1,38,-1,-1,-1,-1,40,42,-1,-1,-1,-1,-1,-1,-1,-1],"split_conditions":[-3.254817E-1,-6.11814E-1,-2.7177235E-1,-5.953688E-1,-1.5906152E-1,3.1177667E-1,2.1464519E-1,-8.666628E-2,-3.8152453E-1,-6.967961E-1,-1.7234692E-1,-1.3267487E0,1.2688875E0,1.0974641E-2,-1.0590623E-2,-6.574369E-1,5.5481756E-1,3.401838E-1,1.0934447E0,4.8524597E-1,9.130613E-1,4.3646214E-3,-3.0680075E-2,-1.5175172E-2,8.62441E-3,2.5226746E-2,-7.466226E-2,-4.937234E-4,-1.4458123E0,-0E0,-4.399218E-2,9.733673E-3,4.019592E-2,3.819507E-1,1.0956516E0,-3.500706E-2,-0E0,5.6419745E-3,2.5498882E-2,2.9598577E-3,-3.9541803E-2,2.5428904E-2,1.4523137E-3],"split_indices":[150,155,39,111,0,134,146,0,133,137,118,40,28,0,0,105,145,51,145,149,40,0,0,0,0,51,0,0,146,0,0,0,0,20,130,0,0,0,0,0,0,0,0],"split_type":[0,0,0,0,0,0,0,0,0,0,0,0,0,0,0,0,0,0,0,0,0,0,0,0,0,0,0,0,0,0,0,0,0,0,0,0,0,0,0,0,0,0,0],"sum_hessian":[2.75E2,2.5E1,2.5E2,1.9E1,6E0,1.11E2,1.39E2,6E0,1.3E1,4.6E1,6.5E1,1.23E2,1.6E1,6E0,7E0,1.4E1,3.2E1,5.1E1,1.4E1,3.9E1,8.4E1,8E0,8E0,6E0,8E0,1.6E1,1.6E1,7E0,4.4E1,6E0,8E0,6E0,3.3E1,2.1E1,6.3E1,8E0,8E0,7E0,3.7E1,1.5E1,6E0,4.2E1,2.1E1],"tree_param":{"num_deleted":"0","num_feature":"157","num_nodes":"43","size_leaf_vector":"1"}},{"base_weights":[-2.1350442E-1,-1.318994E0,2.3504478E-1,-0E0,-2.085008E0,-6.297495E-1,4.1470972E-1,3.6022246E-2,-4.1126224E-1,-2.7096984E0,-2.8071046E-1,1.6446132E-2,-1.316197E0,5.264203E-1,-2.746691E-2,1.8740749E-2,-8.9171356E-1,-3.406858E-2,-3.028668E0,1.4776906E-2,-3.764669E-2,-1.837051E0,-0E0,-1.9728478E-2,5.963246E-1,-7.158014E-3,-3.8512107E-2,-5.4782864E-2,-1.192895E-1,-1.1742308E-2,-8.017058E-2,6.5204775E-1,-1.3010023E-2,2.298209E-2,5.439004E-4],"categories":[],"categories_nodes":[],"categories_segments":[],"categories_sizes":[],"default_left":[0,0,0,0,0,0,0,0,0,0,0,0,0,0,0,0,0,0,0,0,0,0,0,0,0,0,0,0,0,0,0,0,0,0,0],"id":29,"left_children":[1,3,5,7,9,11,13,-1,15,17,19,-1,21,23,-1,-1,25,-1,27,-1,-1,29,-1,-1,31,-1,-1,-1,-1,-1,-1,33,-1,-1,-1],"loss_changes":[1.3199457E2,7.858153E1,2.9212694E1,1.5080423E1,5.1857758E1,2.7035343E1,2.3449022E1,0E0,1.1576298E1,1.153894E1,1.167723E1,0E0,1.3943066E1,1.2371742E1,0E0,0E0,2.5561266E0,0E0,2.2328217E1,0E0,0E0,1.4681484E1,0E0,0E0,8.401356E0,0E0,0E0,0E0,0E0,0E0,0E0,9.252857E0,0E0,0E0,0E0],"parents":[2147483647,0,0,1,1,2,2,3,3,4,4,5,5,6,6,8,8,9,9,10,10,12,12,13,13,16,16,18,18,21,21,24,24,31,31],"right_children":[2,4,6,8,10,12,14,-1,16,18,20,-1,22,24,-1,-1,26,-1,28,-1,-1,30,-1,-1,32,-1,-1,-1,-1,-1,-1,34,-1,-1,-1],"split_conditions":[-1.3917002E-1,4.908775E-1,-5.9047353E-1,-7.2864103E-1,1.4848055E0,-7.8211397E-1,6.9611385E-2,3.6022246E-2,-3.5125262E-1,-1.4559517E0,3.392988E-1,1.6446132E-2,4.7296387E-1,-6.986492E-1,-2.746691E-2,1.8740749E-2,4.7904313E-1,-3.406858E-2,1.1988362E0,1.4776906E-2,-3.764669E-2,-7.398446E-1,-0E0,-1.9728478E-2,6.7519E-1,-7.158014E-3,-3.8512107E-2,-5.4782864E-2,-1.192895E-1,-1.1742308E-2,-8.017058E-2,1.0950912E0,-1.3010023E-2,2.298209E-2,5.439004E-4],"split_indices":[144,46,152,155,92,140,112,0,117,9,105,0,9,106,0,0,149,0,10,0,0,149,0,0,9,0,0,0,0,0,0,130,0,0,0],"split_type":[0,0,0,0,0,0,0,0,0,0,0,0,0,0,0,0,0,0,0,0,0,0,0,0,0,0,0,0,0,0,0,0,0,0,0],"sum_hessian":[2.63E2,7.6E1,1.87E2,2.8E1,4.8E1,3.1E1,1.56E2,7E0,2.1E1,3.5E1,1.3E1,1.1E1,2E1,1.45E2,1.1E1,6E0,1.5E1,7E0,2.8E1,7E0,6E0,1.4E1,6E0,7E0,1.38E2,7E0,8E0,1.4E1,1.4E1,6E0,8E0,1.32E2,6E0,1.1E2,2.2E1],"tree_param":{"num_deleted":"0","num_feature":"157","num_nodes":"35","size_leaf_vector":"1"}},{"base_weights":[5.1355433E-2,-2.1176257E0,1.9779293E-1,-0E0,-1.2701602E-1,4.352502E-3,9.981952E-1,-7.247952E-1,3.3956492E-1,2.925993E-1,1.2743917E0,-4.4169086E-1,-7.427956E-2,-2.999818E-2,4.3758765E-1,2.0045528E-2,-3.22308E-3,4.232181E-2,1.3506296E-2,-1.2915434E0,-0E0,6.418165E-1,-3.4426335E-2,-1.4881768E-2,-5.6410123E-2,1.2069624E-2,-3.626901E-2,2.3749366E-2,-5.6851553E-3,-2.2610923E-2,4.5322054E-3],"categories":[],"categories_nodes":[],"categories_segments":[],"categories_sizes":[],"default_left":[0,0,0,0,0,0,0,0,0,0,0,0,0,0,0,0,0,0,0,0,0,0,0,0,0,0,0,0,0,0,0],"id":30,"left_children":[1,3,5,-1,-1,7,9,11,13,15,17,19,-1,-1,21,-1,-1,-1,-1,23,25,27,29,-1,-1,-1,-1,-1,-1,-1,-1],"loss_changes":[7.964478E1,7.067892E1,3.627458E1,0E0,0E0,4.7491016E1,7.2908783E0,2.698122E1,1.7647842E1,2.789143E0,1.6407318E0,2.089107E1,0E0,0E0,1.2759996E1,0E0,0E0,0E0,0E0,6.1280346E0,1.7573427E1,1.2148327E1,5.70455E0,0E0,0E0,0E0,0E0,0E0,0E0,0E0,0E0],"parents":[2147483647,0,0,1,1,2,2,5,5,6,6,7,7,8,8,9,9,10,10,11,11,14,14,19,19,20,20,21,21,22,22],"right_children":[2,4,6,-1,-1,8,10,12,14,16,18,20,-1,-1,22,-1,-1,-1,-1,24,26,28,30,-1,-1,-1,-1,-1,-1,-1,-1],"split_conditions":[-4.8411822E-1,-9.0663767E-1,5.639313E-1,-0E0,-1.2701602E-1,1.1660603E0,-6.0191825E-2,9.985173E-1,-6.303805E-1,-5.6544155E-1,1.5894845E0,1.7322096E-1,-7.427956E-2,-2.999818E-2,-5.650859E-1,2.0045528E-2,-3.22308E-3,4.232181E-2,1.3506296E-2,6.46598E-1,-8.699252E-2,9.6808153E-1,-1.3917002E-1,-1.4881768E-2,-5.6410123E-2,1.2069624E-2,-3.626901E-2,2.3749366E-2,-5.6851553E-3,-2.2610923E-2,4.5322054E-3],"split_indices":[150,137,149,0,0,91,150,38,152,153,28,73,0,0,75,0,0,0,0,58,64,104,144,0,0,0,0,0,0,0,0],"split_type":[0,0,0,0,0,0,0,0,0,0,0,0,0,0,0,0,0,0,0,0,0,0,0,0,0,0,0,0,0,0,0],"sum_hessian":[2.54E2,1.5E1,2.39E2,8E0,7E0,1.94E2,4.5E1,6E1,1.34E2,1.4E1,3.1E1,5.3E1,7E0,8E0,1.26E2,8E0,6E0,2.5E1,6E0,1.8E1,3.5E1,8.9E1,3.7E1,9E0,9E0,2.7E1,8E0,7.6E1,1.3E1,8E0,2.9E1],"tree_param":{"num_deleted":"0","num_feature":"157","num_nodes":"31","size_leaf_vector":"1"}},{"base_weights":[2.2567898E-2,-1.004844E0,3.8939184E-1,-1.7612877E0,-2.9401006E-2,-8.58642E-2,6.4543027E-1,-5.219448E-2,-2.5872402E0,-4.3673545E-2,3.8902062E-1,2.0553443E-1,-5.791947E-2,9.433922E-1,2.807019E-1,9.534336E-3,-1.4315711E-2,-1.0039862E-1,-4.9298182E-2,9.403669E-1,-1.2078642E-1,5.6136537E-1,-3.1584942E-1,1.0461217E0,-1.9640155E-4,-2.5730255E-1,5.703132E-1,1.0463351E-2,3.8573716E-2,-1.621784E-2,5.7168435E-3,2.0359937E-2,5.339572E-4,-4.341138E-2,8.6655475E-2,1.2509737E0,3.06006E-1,6.2768995E-3,-1.5390018E-2,2.1533633E-2,2.3070727E-3,-1.06459735E-2,2.3872735E-2,2.5741175E-2,4.5112725E-2,2.0505916E-2,-1.4036535E-3],"categories":[],"categories_nodes":[],"categories_segments":[],"categories_sizes":[],"default_left":[0,0,0,0,0,0,0,0,0,0,0,0,0,0,0,0,0,0,0,0,0,0,0,0,0,0,0,0,0,0,0,0,0,0,0,0,0,0,0,0,0,0,0,0,0,0,0],"id":31,"left_children":[1,3,5,7,9,11,13,15,17,-1,19,21,-1,23,25,-1,-1,-1,-1,27,29,31,33,35,-1,37,39,-1,-1,-1,-1,-1,-1,-1,41,43,45,-1,-1,-1,-1,-1,-1,-1,-1,-1,-1],"loss_changes":[1.00354836E2,4.995079E1,2.4592718E1,5.244095E1,2.0471098E1,3.8999096E1,1.2849861E1,2.4571602E0,9.945953E0,0E0,7.766183E0,1.145174E1,0E0,7.7036743E0,9.862625E0,0E0,0E0,0E0,0E0,8.932781E-1,2.0766113E0,1.812314E0,1.2184094E1,8.037827E0,0E0,2.8638434E0,2.3177805E0,0E0,0E0,0E0,0E0,0E0,0E0,0E0,6.2453485E0,1.8556976E0,2.69919E0,0E0,0E0,0E0,0E0,0E0,0E0,0E0,0E0,0E0,0E0],"parents":[2147483647,0,0,1,1,2,2,3,3,4,4,5,5,6,6,7,7,8,8,10,10,11,11,13,13,14,14,19,19,20,20,21,21,22,22,23,23,25,25,26,26,34,34,35,35,36,36],"right_children":[2,4,6,8,10,12,14,16,18,-1,20,22,-1,24,26,-1,-1,-1,-1,28,30,32,34,36,-1,38,40,-1,-1,-1,-1,-1,-1,-1,42,44,46,-1,-1,-1,-1,-1,-1,-1,-1,-1,-1],"split_conditions":[1.9249608E-1,-3.220634E-1,-2.9878208E-1,4.1419527E-1,4.312567E-1,-3.9861667E-1,1.8833516E0,-1.7532112E-1,-7.510563E-1,-4.3673545E-2,-6.428111E-1,-5.583006E-1,-5.791947E-2,8.2494706E-1,4.9895427E-1,9.534336E-3,-1.4315711E-2,-1.0039862E-1,-4.9298182E-2,-1.3758782E-1,1.9733824E0,-6.44253E-2,-6.811532E-1,-2.793362E-1,-1.9640155E-4,-5.757913E-1,-4.7558412E-1,1.0463351E-2,3.8573716E-2,-1.621784E-2,5.7168435E-3,2.0359937E-2,5.339572E-4,-4.341138E-2,5.2602446E-1,-4.316564E-1,-1.0272974E0,6.2768995E-3,-1.5390018E-2,2.1533633E-2,2.3070727E-3,-1.06459735E-2,2.3872735E-2,2.5741175E-2,4.5112725E-2,2.0505916E-2,-1.4036535E-3],"split_indices":[144,39,39,130,130,39,138,147,63,0,144,34,0,130,140,0,0,0,0,148,138,105,155,9,0,21,21,0,0,0,0,0,0,0,138,133,138,0,0,0,0,0,0,0,0,0,0],"split_type":[0,0,0,0,0,0,0,0,0,0,0,0,0,0,0,0,0,0,0,0,0,0,0,0,0,0,0,0,0,0,0,0,0,0,0,0,0,0,0,0,0,0,0,0,0,0,0],"sum_hessian":[2.66E2,6.9E1,1.97E2,3.8E1,3.1E1,6.8E1,1.29E2,1.3E1,2.5E1,7E0,2.4E1,5.9E1,9E0,6.9E1,6E1,6E0,7E0,1.2E1,1.3E1,1.2E1,1.2E1,3.6E1,2.3E1,6.3E1,6E0,2E1,4E1,6E0,6E0,6E0,6E0,2.8E1,8E0,6E0,1.7E1,4.8E1,1.5E1,6E0,1.4E1,2.9E1,1.1E1,1E1,7E0,2.2E1,2.6E1,8E0,7E0],"tree_param":{"num_deleted":"0","num_feature":"157","num_nodes":"47","size_leaf_vector":"1"}},{"base_weights":[-3.5361194E-3,-1.884504E0,2.1111572E-1,-4.3524468E-1,-3.074478E0,9.166879E-1,1.2061289E-2,-3.3388674E-2,8.236196E-3,-1.3034618E-1,-2.7109727E-2,1.0602504E0,-0E0,-6.1630505E-1,3.2254478E-1,-0E0,3.6287878E-2,-1.1400737E0,1.6785665E-1,4.397306E-1,-6.0869896E-1,-1.4940816E0,-0E0,-2.554481E-2,9.634349E-1,6.3095635E-1,-7.063083E-2,1.4244639E-2,-5.687442E-2,-6.4326435E-2,-1.7518753E-2,7.857297E-3,3.9362125E-2,-0E0,2.0128213E-2,-1.5825555E-2,4.8781503E-3],"categories":[],"categories_nodes":[],"categories_segments":[],"categories_sizes":[],"default_left":[0,0,0,0,0,0,0,0,0,0,0,0,0,0,0,0,0,0,0,0,0,0,0,0,0,0,0,0,0,0,0,0,0,0,0,0,0],"id":32,"left_children":[1,3,5,7,9,11,13,-1,-1,-1,-1,15,-1,17,19,-1,-1,21,23,25,27,29,-1,-1,31,33,35,-1,-1,-1,-1,-1,-1,-1,-1,-1,-1],"loss_changes":[1.0947804E2,4.3893814E1,3.28826E1,7.687145E0,3.376915E1,6.8378525E0,3.6750694E1,0E0,0E0,0E0,0E0,7.008152E0,0E0,2.6373735E1,1.4023902E1,0E0,0E0,1.517551E1,2.0980913E1,1.17188E1,2.1423222E1,1.3918457E1,0E0,0E0,2.0578651E0,2.0852509E0,3.6988754E0,0E0,0E0,0E0,0E0,0E0,0E0,0E0,0E0,0E0,0E0],"parents":[2147483647,0,0,1,1,2,2,3,3,4,4,5,5,6,6,11,11,13,13,14,14,17,17,18,18,19,19,20,20,21,21,24,24,25,25,26,26],"right_children":[2,4,6,8,10,12,14,-1,-1,-1,-1,16,-1,18,20,-1,-1,22,24,26,28,30,-1,-1,32,34,36,-1,-1,-1,-1,-1,-1,-1,-1,-1,-1],"split_conditions":[-9.3465793E-1,-6.2476784E-1,-1.2800138E0,-1.0917526E0,-3.906076E-1,-1.3267487E0,1.5553156E0,-3.3388674E-2,8.236196E-3,-1.3034618E-1,-2.7109727E-2,2.176231E-2,-0E0,8.881451E-2,6.7127275E-1,-0E0,3.6287878E-2,1.9010085E0,-7.086984E-1,1.4074801E0,-9.682311E-1,-1.6581015E-1,-0E0,-2.554481E-2,3.3697277E-1,-3.529214E-1,-1.3920978E-1,1.4244639E-2,-5.687442E-2,-6.4326435E-2,-1.7518753E-2,7.857297E-3,3.9362125E-2,-0E0,2.0128213E-2,-1.5825555E-2,4.8781503E-3],"split_indices":[34,135,22,2,117,40,132,0,0,0,0,140,0,134,22,0,0,139,33,145,138,76,0,0,57,140,69,0,0,0,0,0,0,0,0,0,0],"split_type":[0,0,0,0,0,0,0,0,0,0,0,0,0,0,0,0,0,0,0,0,0,0,0,0,0,0,0,0,0,0,0,0,0,0,0,0,0],"sum_hessian":[2.66E2,2.7E1,2.39E2,1.3E1,1.4E1,5.1E1,1.88E2,7E0,6E0,8E0,6E0,4.4E1,7E0,6.1E1,1.27E2,6E0,3.8E1,3.7E1,2.4E1,1.14E2,1.3E1,2.8E1,9E0,1E1,1.4E1,8.4E1,3E1,7E0,6E0,1.5E1,1.3E1,6E0,8E0,6E0,7.8E1,1.1E1,1.9E1],"tree_param":{"num_deleted":"0","num_feature":"157","num_nodes":"37","size_leaf_vector":"1"}},{"base_weights":[1.6552238E-2,-7.857089E-1,3.4086692E-1,-1.2161753E0,4.5448685E-1,4.202873E-1,-2.7636362E-2,-1.6417494E-1,-2.0883656E0,2.3903286E-2,-0E0,5.238837E-1,-5.9290266E-1,-3.5635136E-2,1.7089377E-1,-2.4127932E0,-2.0138705E-2,6.2962526E-1,-1.9438326E-1,-3.9571445E-2,2.7861486E-3,6.643843E-1,-1.9476093E-2,-3.68738E-2,-8.1822336E-2,7.165426E-1,-0E0,-2.9489795E-2,8.122904E-3,2.9355686E-2,4.1968413E-3,-3.2833924E-3,2.2973744E-2],"categories":[],"categories_nodes":[],"categories_segments":[],"categories_sizes":[],"default_left":[0,0,0,0,0,0,0,0,0,0,0,0,0,0,0,0,0,0,0,0,0,0,0,0,0,0,0,0,0,0,0,0,0],"id":33,"left_children":[1,3,5,7,9,11,-1,13,15,-1,-1,17,19,-1,21,23,-1,25,27,-1,-1,29,-1,-1,-1,31,-1,-1,-1,-1,-1,-1,-1],"loss_changes":[6.2498016E1,3.783988E1,1.7276546E1,4.534857E1,3.259322E0,1.739029E1,0E0,9.601591E0,8.798317E0,0E0,0E0,1.1849258E1,8.604225E0,0E0,8.012227E0,2.290779E0,0E0,7.721943E0,7.7980795E0,0E0,0E0,1.0735903E0,0E0,0E0,0E0,5.771538E0,0E0,0E0,0E0,0E0,0E0,0E0,0E0],"parents":[2147483647,0,0,1,1,2,2,3,3,4,4,5,5,7,7,8,8,11,11,12,12,14,14,15,15,17,17,18,18,21,21,25,25],"right_children":[2,4,6,8,10,12,-1,14,16,-1,-1,18,20,-1,22,24,-1,26,28,-1,-1,30,-1,-1,-1,32,-1,-1,-1,-1,-1,-1,-1],"split_conditions":[1.9249608E-1,1.4568865E0,6.9611385E-2,6.4178E-1,-4.3604594E-1,6.661529E-1,-2.7636362E-2,-2.0700836E-1,1.606301E0,2.3903286E-2,-0E0,3.8310623E-1,2.7431136E-1,-3.5635136E-2,-2.2780198E-1,9.031703E-1,-2.0138705E-2,1.0956516E0,-6.075507E-1,-3.9571445E-2,2.7861486E-3,-9.7484905E-1,-1.9476093E-2,-3.68738E-2,-8.1822336E-2,-5.241551E-1,-0E0,-2.9489795E-2,8.122904E-3,2.9355686E-2,4.1968413E-3,-3.2833924E-3,2.2973744E-2],"split_indices":[144,91,112,46,15,87,0,150,82,0,0,88,51,0,40,130,0,130,110,0,0,37,0,0,0,112,0,0,0,0,0,0,0],"split_type":[0,0,0,0,0,0,0,0,0,0,0,0,0,0,0,0,0,0,0,0,0,0,0,0,0,0,0,0,0,0,0,0,0],"sum_hessian":[2.4E2,6.8E1,1.72E2,5.1E1,1.7E1,1.63E2,9E0,2.4E1,2.7E1,1E1,7E0,1.49E2,1.4E1,6E0,1.8E1,2.1E1,6E0,1.31E2,1.8E1,7E0,7E0,1.2E1,6E0,6E0,1.5E1,1.16E2,1.5E1,7E0,1.1E1,6E0,6E0,6E0,1.1E2],"tree_param":{"num_deleted":"0","num_feature":"157","num_nodes":"33","size_leaf_vector":"1"}},{"base_weights":[-6.328591E-2,-1.2648398E0,2.9173368E-1,-3.0595572E0,-6.8241334E-1,-8.086357E-2,7.646427E-1,-5.2126855E-2,-1.126777E-1,-9.9300504E-1,6.2043993E-3,-5.5645835E-1,3.2479048E-1,9.0373045E-1,-4.0479787E-2,-4.8489954E-2,-4.048275E-1,-1.6140331E0,-1.8320094E-1,4.717728E-1,-1.36060435E-2,-0E0,9.870196E-1,7.078345E-3,-1.3073584E-2,-0E0,-3.7106298E-2,-1.7546521E-2,-6.928789E-2,-5.100127E-1,1.959823E-1,5.4002285E-1,-0E0,3.794663E-2,6.5492326E-1,-1.3159945E-2,1.7078927E-2,-0E0,-2.8615125E-2,-3.2373636E-3,2.1057393E-2,2.0038576E-3,1.7601648E-2,4.7402987E-3,2.221911E-2],"categories":[],"categories_nodes":[],"categories_segments":[],"categories_sizes":[],"default_left":[0,0,0,0,0,0,0,0,0,0,0,0,0,0,0,0,0,0,0,0,0,0,0,0,0,0,0,0,0,0,0,0,0,0,0,0,0,0,0,0,0,0,0,0,0],"id":34,"left_children":[1,3,5,7,9,11,13,-1,-1,15,-1,17,19,21,23,-1,25,27,29,31,-1,-1,33,-1,-1,35,-1,-1,-1,37,39,41,-1,-1,43,-1,-1,-1,-1,-1,-1,-1,-1,-1,-1],"loss_changes":[1.0982903E2,5.6590027E1,3.5312653E1,2.8946838E0,1.3506649E1,2.1531912E1,1.0598518E1,0E0,0E0,1.0672909E1,0E0,1.8684097E1,6.938769E0,5.1203346E0,1.6709411E0,0E0,7.292224E0,5.7146072E0,5.2833176E0,1.7595158E0,0E0,0E0,4.180809E0,0E0,0E0,3.7531013E0,0E0,0E0,0E0,5.8487763E0,3.3351295E0,4.6323967E-1,0E0,0E0,6.819172E-1,0E0,0E0,0E0,0E0,0E0,0E0,0E0,0E0,0E0,0E0],"parents":[2147483647,0,0,1,1,2,2,3,3,4,4,5,5,6,6,9,9,11,11,12,12,13,13,14,14,16,16,17,17,18,18,19,19,22,22,25,25,29,29,30,30,31,31,34,34],"right_children":[2,4,6,8,10,12,14,-1,-1,16,-1,18,20,22,24,-1,26,28,30,32,-1,-1,34,-1,-1,36,-1,-1,-1,38,40,42,-1,-1,44,-1,-1,-1,-1,-1,-1,-1,-1,-1,-1],"split_conditions":[-1.6330728E-2,-9.9426967E-1,-1.12398885E-1,-2.2555055E-1,1.2691981E0,2.8455573E-1,3.540324E-1,-5.2126855E-2,-1.126777E-1,8.689878E-1,6.2043993E-3,-5.102479E-1,1.7820284E0,5.3386766E-2,-1.2996866E0,-4.8489954E-2,4.4697E-1,6.9548595E-1,1.5553156E0,8.887188E-1,-1.36060435E-2,-0E0,5.0228536E-1,7.078345E-3,-1.3073584E-2,7.850612E-1,-3.7106298E-2,-1.7546521E-2,-6.928789E-2,-7.252413E-1,-1.2409582E0,-8.125702E-1,-0E0,3.794663E-2,-6.019184E-1,-1.3159945E-2,1.7078927E-2,-0E0,-2.8615125E-2,-3.2373636E-3,2.1057393E-2,2.0038576E-3,1.7601648E-2,4.7402987E-3,2.221911E-2],"split_indices":[144,16,39,76,38,51,88,0,0,128,0,129,145,46,22,0,51,148,132,2,0,0,2,0,0,85,0,0,0,136,146,156,0,0,153,0,0,0,0,0,0,0,0,0,0],"split_type":[0,0,0,0,0,0,0,0,0,0,0,0,0,0,0,0,0,0,0,0,0,0,0,0,0,0,0,0,0,0,0,0,0,0,0,0,0,0,0,0,0,0,0,0,0],"sum_hessian":[2.54E2,5.8E1,1.96E2,1.3E1,4.5E1,1.09E2,8.7E1,6E0,7E0,3.4E1,1.1E1,5.1E1,5.8E1,7.5E1,1.2E1,1.5E1,1.9E1,1.2E1,3.9E1,5E1,8E0,7E0,6.8E1,6E0,6E0,1.3E1,6E0,6E0,6E0,2.2E1,1.7E1,4.4E1,6E0,3.4E1,3.4E1,7E0,6E0,1E1,1.2E1,1E1,7E0,6E0,3.8E1,7E0,2.7E1],"tree_param":{"num_deleted":"0","num_feature":"157","num_nodes":"45","size_leaf_vector":"1"}},{"base_weights":[4.952633E-5,-8.1518817E-1,2.5759512E-1,-1.4990536E0,-8.207014E-2,4.1521028E-1,-4.5654088E-1,-2.325808E0,-4.2051598E-1,-3.1939413E-2,4.67642E-1,-0E0,6.010677E-1,-5.6925416E-2,-4.7619827E-3,-4.5607924E-2,-9.5126964E-2,-3.200944E-2,4.9752067E-3,-6.385388E-3,2.5004735E-2,2.8185484E-1,-4.091799E-2,6.765957E-1,-1.5473161E-2,-4.2310038E-1,2.986977E-2,-1.8441649E-1,6.276685E-1,7.812662E-1,3.409349E-2,8.671163E-3,-9.534144E-1,6.8541686E-3,-2.9987592E-2,-0E0,2.6917826E-2,2.6241506E-2,1.4250291E-2,-5.1596384E-3,7.1808165E-3,-4.4171296E-2,-5.597821E-3],"categories":[],"categories_nodes":[],"categories_segments":[],"categories_sizes":[],"default_left":[0,0,0,0,0,0,0,0,0,0,0,0,0,0,0,0,0,0,0,0,0,0,0,0,0,0,0,0,0,0,0,0,0,0,0,0,0,0,0,0,0,0,0],"id":35,"left_children":[1,3,5,7,9,11,13,15,17,-1,19,21,23,-1,25,-1,-1,-1,-1,-1,-1,27,-1,29,-1,31,-1,33,35,37,39,-1,41,-1,-1,-1,-1,-1,-1,-1,-1,-1,-1],"loss_changes":[5.340927E1,2.9045612E1,2.2161E1,2.434333E1,1.7662281E1,1.2500582E1,2.1188091E1,3.5602646E0,6.5907164E0,0E0,5.6781335E0,1.9977926E1,9.876476E0,0E0,1.1557756E1,0E0,0E0,0E0,0E0,0E0,0E0,7.3759937E0,0E0,6.4008865E0,0E0,8.669477E0,0E0,6.901275E0,5.137021E0,1.1763496E0,8.105439E-1,0E0,3.5239668E0,0E0,0E0,0E0,0E0,0E0,0E0,0E0,0E0,0E0,0E0],"parents":[2147483647,0,0,1,1,2,2,3,3,4,4,5,5,6,6,7,7,8,8,10,10,11,11,12,12,14,14,21,21,23,23,25,25,27,27,28,28,29,29,30,30,32,32],"right_children":[2,4,6,8,10,12,14,16,18,-1,20,22,24,-1,26,-1,-1,-1,-1,-1,-1,28,-1,30,-1,32,-1,34,36,38,40,-1,42,-1,-1,-1,-1,-1,-1,-1,-1,-1,-1],"split_conditions":[1.9249608E-1,-3.1966934E-1,1.5163094E0,7.571687E-2,-2.4875218E-1,-1.02074735E-1,-5.394323E-1,-5.597044E-1,-4.6532702E-1,-3.1939413E-2,-5.0333726E-1,-3.2728592E-1,1.8928655E0,-5.6925416E-2,-2.573496E-1,-4.5607924E-2,-9.5126964E-2,-3.200944E-2,4.9752067E-3,-6.385388E-3,2.5004735E-2,-6.8382335E-1,-4.091799E-2,-5.103684E-1,-1.5473161E-2,-6.2401474E-1,2.986977E-2,-7.4182093E-1,-6.885952E-1,1.8016908E0,1.7645977E0,8.671163E-3,1.1529335E0,6.8541686E-3,-2.9987592E-2,-0E0,2.6917826E-2,2.6241506E-2,1.4250291E-2,-5.1596384E-3,7.1808165E-3,-4.4171296E-2,-5.597821E-3],"split_indices":[144,129,145,51,140,140,18,116,121,0,87,140,140,0,111,0,0,0,0,0,0,9,0,33,0,111,0,137,76,144,10,0,130,0,0,0,0,0,0,0,0,0,0],"split_type":[0,0,0,0,0,0,0,0,0,0,0,0,0,0,0,0,0,0,0,0,0,0,0,0,0,0,0,0,0,0,0,0,0,0,0,0,0,0,0,0,0,0,0],"sum_hessian":[2.55E2,6E1,1.95E2,3E1,3E1,1.61E2,3.4E1,1.6E1,1.4E1,1.1E1,1.9E1,5E1,1.11E2,7E0,2.7E1,1E1,6E0,7E0,7E0,6E0,1.3E1,4.2E1,8E0,1.05E2,6E0,2E1,7E0,1.7E1,2.5E1,8.9E1,1.6E1,8E0,1.2E1,1.1E1,6E0,7E0,1.8E1,6.4E1,2.5E1,6E0,1E1,6E0,6E0],"tree_param":{"num_deleted":"0","num_feature":"157","num_nodes":"43","size_leaf_vector":"1"}},{"base_weights":[-1.1040818E-1,-1.1599683E0,2.676478E-1,-2.0095525E0,-3.7511206E-1,4.5350328E-1,-5.0174934E-1,-1.4685429E0,-1.1255904E-1,-1.0771365E0,1.996245E-1,5.305863E-1,-2.3404425E-2,-1.5145292E0,3.5997676E-3,-6.063283E-3,-1.7843814E0,-0E0,-5.111757E-2,2.3295378E-2,-7.931697E-2,6.720905E-1,1.2161325E-2,-1.54390475E-2,-6.581251E-2,1.4403045E-2,-4.0926123E-1,-2.6159385E-2,-6.992713E-2,-1.3171849E-2,4.0555885E-3,7.4719286E-1,-1.4396998E-2,-2.1018965E-2,2.1799007E-1,-2.2968436E-2,-0E0,2.3342574E-2,3.1338697E-3,-0E0,2.3956668E-2],"categories":[],"categories_nodes":[],"categories_segments":[],"categories_sizes":[],"default_left":[0,0,0,0,0,0,0,0,0,0,0,0,0,0,0,0,0,0,0,0,0,0,0,0,0,0,0,0,0,0,0,0,0,0,0,0,0,0,0,0,0],"id":36,"left_children":[1,3,5,7,9,11,13,15,-1,17,19,21,-1,23,25,-1,27,-1,-1,-1,29,31,33,-1,-1,-1,35,-1,-1,-1,-1,37,-1,-1,39,-1,-1,-1,-1,-1,-1],"loss_changes":[1.0450398E2,4.390925E1,2.7574535E1,2.229338E1,1.6181444E1,1.4990883E1,2.0133848E1,8.730427E0,0E0,1.1064434E1,4.0208387E0,1.0254993E1,0E0,5.5785694E0,5.132159E0,0E0,6.13916E0,0E0,0E0,0E0,1.3855867E0,1.0475586E1,4.6989217E0,0E0,0E0,0E0,1.8914487E0,0E0,0E0,0E0,0E0,1.6203728E0,0E0,0E0,3.71588E0,0E0,0E0,0E0,0E0,0E0,0E0],"parents":[2147483647,0,0,1,1,2,2,3,3,4,4,5,5,6,6,7,7,9,9,10,10,11,11,13,13,14,14,16,16,20,20,21,21,22,22,26,26,31,31,34,34],"right_children":[2,4,6,8,10,12,14,16,-1,18,20,22,-1,24,26,-1,28,-1,-1,-1,30,32,34,-1,-1,-1,36,-1,-1,-1,-1,38,-1,-1,40,-1,-1,-1,-1,-1,-1],"split_conditions":[1.9249608E-1,4.8127222E-1,1.5133522E0,1.5741991E0,-7.8281486E-1,1.0532311E0,2.7883494E-1,-8.4300995E-1,-1.1255904E-1,6.120091E-1,-1.3310096E0,1.7402712E0,-2.3404425E-2,8.458777E-1,-8.3390963E-1,-6.063283E-3,-2.4665503E-1,-0E0,-5.111757E-2,2.3295378E-2,-2.0406319E-1,2.238946E0,-6.019184E-1,-1.54390475E-2,-6.581251E-2,1.4403045E-2,-1.5983501E-1,-2.6159385E-2,-6.992713E-2,-1.3171849E-2,4.0555885E-3,1.4554085E0,-1.4396998E-2,-2.1018965E-2,7.0857406E-3,-2.2968436E-2,-0E0,2.3342574E-2,3.1338697E-3,-0E0,2.3956668E-2],"split_indices":[144,138,145,145,21,148,140,20,0,138,40,144,0,86,63,0,140,0,0,0,22,138,153,0,0,0,39,0,0,0,0,145,0,0,147,0,0,0,0,0,0],"split_type":[0,0,0,0,0,0,0,0,0,0,0,0,0,0,0,0,0,0,0,0,0,0,0,0,0,0,0,0,0,0,0,0,0,0,0,0,0,0,0,0,0],"sum_hessian":[2.6E2,6.9E1,1.91E2,3.2E1,3.7E1,1.55E2,3.6E1,2.6E1,6E0,1.7E1,2E1,1.47E2,8E0,1.2E1,2.4E1,6E0,2E1,7E0,1E1,7E0,1.3E1,1.14E2,3.3E1,6E0,6E0,1.2E1,1.2E1,9E0,1.1E1,6E0,7E0,1.08E2,6E0,6E0,2.7E1,6E0,6E0,1.01E2,7E0,2E1,7E0],"tree_param":{"num_deleted":"0","num_feature":"157","num_nodes":"41","size_leaf_vector":"1"}},{"base_weights":[-0E0,-1.383007E0,1.697786E-1,-8.6132936E-2,-3.3370003E-1,2.8339848E-1,-1.1558229E0,5.7462417E-3,-2.43547E-2,3.6246905E-1,-3.2872956E-2,-0E0,-6.1372723E-2,4.2392042E-1,-4.949312E-1,4.6961612E-1,-1.5617131E-2,-4.0827546E-2,6.2512388E-3,1.527475E-2,-1.4295887E-2],"categories":[],"categories_nodes":[],"categories_segments":[],"categories_sizes":[],"default_left":[0,0,0,0,0,0,0,0,0,0,0,0,0,0,0,0,0,0,0,0,0],"id":37,"left_children":[1,3,5,-1,7,9,11,-1,-1,13,-1,-1,-1,15,17,19,-1,-1,-1,-1,-1],"loss_changes":[6.4061745E1,4.350116E1,3.6248405E1,0E0,5.4358177E0,2.4425749E1,2.060949E1,0E0,0E0,1.1429718E1,0E0,0E0,0E0,8.890774E0,9.718351E0,7.9869766E0,0E0,0E0,0E0,0E0,0E0],"parents":[2147483647,0,0,1,1,2,2,4,4,5,5,6,6,9,9,13,13,14,14,15,15],